3447 10
</s> 0.034019 -0.009037 0.018421 -0.027309 0.033222 -0.016094 0.040529 0.019014 0.048688 0.021137 
the 0.054064 0.169272 0.147511 -0.013899 0.049151 -0.010955 0.057300 -0.077220 -0.072468 -0.005233 
of 0.053820 0.143444 0.110393 -0.021613 0.093466 -0.017054 0.027018 0.020192 -0.033037 -0.062856 
and 0.041273 0.112823 0.157550 -0.051541 0.074720 -0.006884 0.037989 0.066470 -0.099292 -0.035880 
one -0.009741 0.252267 0.163286 0.233242 0.194526 0.043959 -0.066835 -0.032662 0.047378 0.158427 
in 0.000239 0.148872 0.144923 -0.011556 0.074580 -0.024237 -0.016252 -0.037261 -0.136800 0.001141 
a 0.128720 0.070077 0.126545 0.016051 0.102009 -0.106367 0.059519 0.021578 -0.039031 0.040072 
to 0.119121 0.142059 0.118651 0.041392 -0.036277 -0.109868 0.114078 -0.098678 -0.146693 -0.085413 
zero 0.040770 0.358735 -0.019234 0.276790 0.195240 0.181880 -0.020468 0.001810 -0.052105 0.217050 
nine -0.029430 0.291777 0.226324 0.299706 0.210376 0.090781 -0.055368 -0.020434 0.039402 0.224452 
two 0.041354 0.271736 -0.006277 0.271935 0.124600 0.046970 -0.002773 -0.007930 0.085651 0.244387 
is 0.134191 0.147955 -0.066419 -0.137872 0.047807 -0.130597 0.018129 0.174082 -0.088440 0.056230 
as 0.083347 0.091383 0.119627 -0.085473 0.117961 -0.138219 0.067077 -0.017093 -0.128942 -0.038233 
eight 0.058908 0.375469 0.151937 0.203842 0.196670 0.072851 -0.103927 -0.026968 0.046064 0.242277 
for 0.020794 0.125761 0.101199 0.097817 0.084937 -0.059936 0.073722 0.063830 -0.142663 0.003749 
s 0.010342 0.060508 0.301057 0.081411 0.072730 -0.030487 -0.018368 0.017887 -0.060901 0.017363 
five 0.046275 0.322855 0.110333 0.206094 0.125444 0.101225 -0.085455 0.033509 0.040508 0.271055 
three 0.067217 0.324057 0.058323 0.219718 0.159711 0.132766 -0.010715 -0.113195 0.023790 0.269881 
was 0.065685 0.087398 0.279389 0.070140 0.032890 -0.058518 0.027574 -0.223669 -0.115497 0.016061 
by 0.046968 0.107029 0.206105 -0.000199 0.052841 -0.059357 0.064056 -0.047923 -0.034260 -0.002565 
that 0.224125 0.115740 0.011835 0.028166 0.051317 -0.148546 0.120590 -0.083471 -0.108803 -0.177689 
four 0.059935 0.328005 0.082493 0.222243 0.151678 0.141195 -0.025168 -0.066465 0.075882 0.244829 
six 0.032241 0.325371 0.123744 0.181963 0.212007 0.163787 -0.079125 -0.028874 0.086541 0.239464 
seven 0.059190 0.331008 0.189704 0.236664 0.150808 0.101177 -0.104925 -0.045172 0.048079 0.248679 
with 0.056439 0.085852 0.167277 0.019432 0.031810 -0.028455 0.046316 0.018741 -0.156934 0.055700 
on 0.080777 0.059325 0.201190 0.155124 0.095717 -0.028437 0.053536 0.007208 -0.071843 0.070587 
are 0.194468 0.222477 -0.099964 -0.156865 0.043377 -0.125454 0.066540 0.285289 -0.195984 0.004878 
it 0.188477 0.088780 -0.039375 -0.060077 0.093601 -0.073000 0.068788 -0.154609 -0.107709 0.017674 
from 0.104343 0.149641 0.123850 -0.035397 0.020465 -0.026014 -0.027230 -0.018260 -0.081836 0.031886 
or 0.220697 0.133592 -0.073377 -0.119233 0.060613 -0.189656 0.102575 0.221823 -0.139709 -0.014032 
his 0.207432 0.037909 0.434507 0.133288 0.136201 -0.128205 -0.150390 -0.208181 -0.071617 -0.107998 
an 0.136505 0.041961 0.089071 0.063815 0.095927 -0.067552 0.097106 0.007634 -0.035963 0.021014 
be 0.272379 0.112106 -0.040621 -0.012027 0.112390 -0.214079 0.178528 0.032875 -0.118285 -0.090071 
this 0.177015 0.054700 0.020814 -0.038837 0.107685 -0.048906 0.143824 -0.072600 -0.038273 -0.082507 
which 0.125572 0.034923 0.134566 -0.105851 0.070352 -0.019115 0.085600 0.022147 -0.131792 -0.024714 
at 0.104686 0.091178 0.190650 0.110123 0.023400 0.078641 -0.025108 -0.010516 -0.113717 0.070327 
he 0.297217 -0.001562 0.404048 0.136049 0.049371 -0.160497 -0.155718 -0.154145 -0.036122 -0.072164 
also -0.029925 0.068305 0.105642 -0.064333 0.148144 -0.015598 0.018826 0.175593 -0.063208 0.076438 
not 0.215644 0.149911 -0.055986 0.059710 0.070512 -0.158336 0.158789 -0.034195 -0.176484 -0.131065 
have 0.139806 0.180563 -0.027328 -0.098377 0.079054 -0.005456 0.039333 0.040256 -0.269364 -0.089780 
were 0.012472 0.180612 0.249238 -0.085649 0.038173 -0.018005 0.054745 -0.290861 -0.282054 -0.126697 
has 0.027382 0.178329 0.056890 -0.035796 0.001312 0.025595 0.052359 0.111430 -0.172023 -0.057334 
but 0.140022 0.140012 0.082397 -0.010628 0.095880 -0.170261 0.058253 -0.095872 -0.171331 -0.043064 
other 0.071314 0.162246 0.004426 -0.088001 0.078413 -0.116930 0.100133 0.105768 -0.172680 -0.007885 
their 0.029611 0.072562 0.099278 -0.051870 0.031978 -0.146244 0.017354 0.027757 -0.411168 -0.067573 
its -0.061436 0.187742 0.131123 -0.103133 0.024156 0.055847 0.189769 -0.087362 -0.165944 0.019795 
first 0.077302 0.077350 0.223026 0.067915 0.179274 -0.064422 0.000462 -0.123466 -0.057252 0.054796 
they 0.222981 0.097117 -0.012054 -0.003594 -0.027422 -0.110446 -0.033156 -0.033700 -0.352495 -0.073283 
some 0.072509 0.088117 0.072124 -0.100617 0.135378 -0.096097 0.050248 0.027459 -0.236348 -0.155533 
had 0.089527 0.160899 0.321594 0.092022 0.067902 -0.013927 0.008686 -0.331456 -0.281644 -0.047379 
all 0.121163 0.144846 -0.043804 0.016510 0.049933 -0.190241 0.044447 0.069993 -0.108332 -0.028070 
more 0.120023 0.116040 -0.037243 -0.074505 0.132525 -0.012530 0.121735 0.011148 -0.307863 -0.035279 
most 0.035883 0.158896 0.037482 -0.173020 0.119018 0.001560 0.058252 0.041525 -0.291165 0.004775 
can 0.391216 0.073196 -0.166438 -0.002748 0.145880 -0.205593 0.281366 0.248327 -0.186812 0.046347 
been 0.031003 0.163615 0.056637 -0.057526 0.126610 0.017191 0.035202 -0.119659 -0.234822 -0.147554 
such 0.130652 0.008809 0.133002 -0.204252 0.142917 -0.091168 0.128101 0.097863 -0.280756 -0.107873 
many 0.047537 0.085433 0.142410 -0.174430 0.093944 -0.010612 0.033023 0.037300 -0.344672 -0.099974 
who 0.112726 0.041690 0.242878 0.035067 0.037788 -0.238452 -0.125604 -0.048985 -0.164075 -0.070802 
new -0.016605 0.125943 0.235930 0.141415 0.130272 -0.006926 0.010416 0.116459 -0.170163 -0.010357 
used 0.109087 0.114655 0.004089 -0.252267 0.170031 -0.078633 0.210531 0.052948 -0.080864 0.083608 
there 0.071006 0.205926 -0.084700 -0.031462 0.054121 -0.022502 -0.021275 0.072171 -0.185287 -0.063895 
after 0.074269 0.084584 0.291591 0.187815 0.013251 -0.105387 -0.055134 -0.227446 -0.213538 0.023505 
when 0.278124 0.047805 0.090091 0.058081 -0.006003 -0.181350 0.040899 -0.167502 -0.120871 0.077682 
into 0.090733 0.131634 0.228952 -0.130359 -0.020015 -0.005333 0.096435 -0.139368 -0.129309 0.005721 
american -0.138538 0.153555 0.327890 0.111400 0.078728 -0.095946 -0.011998 0.234087 -0.039893 0.176562 
time 0.127628 0.075910 0.059516 0.031438 0.177130 0.024704 0.043238 -0.175470 -0.147442 0.076174 
these 0.111968 0.077886 0.068151 -0.148193 0.064975 -0.075052 0.147174 0.019870 -0.250924 -0.108770 
only 0.177936 0.204453 -0.012478 -0.028286 0.049409 -0.016488 0.086928 -0.094896 -0.187088 0.050823 
see 0.007157 0.227679 0.064536 -0.052723 0.269256 -0.002273 0.007208 0.336136 0.115480 0.070491 
may 0.149969 0.140297 -0.072790 0.043131 0.013201 -0.163718 0.077135 0.110287 -0.171422 -0.079312 
than 0.112844 0.147386 -0.144152 0.018121 0.060071 0.007901 0.077399 -0.023203 -0.350633 0.037250 
world -0.072418 0.168594 0.225014 0.047488 0.076238 0.119448 0.079721 0.032237 -0.141472 0.050308 
i 0.384556 0.072272 -0.026688 0.111121 0.247078 -0.189942 -0.079695 -0.115182 0.156178 0.093539 
b 0.119748 0.377940 0.062344 -0.069456 0.259882 -0.329328 -0.006134 0.195715 0.304818 0.413933 
would 0.180369 0.045016 0.140234 0.141640 0.071529 -0.150098 0.163694 -0.215147 -0.188183 -0.094214 
d 0.050794 0.245268 0.226844 0.030698 0.261873 -0.129724 0.106354 0.016835 0.247427 0.333646 
no 0.189003 0.114032 -0.110988 0.100279 -0.005459 -0.074685 0.008800 -0.009316 -0.133810 0.010794 
however 0.107539 0.180862 0.026275 -0.019306 -0.036301 -0.142596 0.126914 -0.140930 -0.238709 -0.117227 
between 0.100016 0.276492 0.095800 -0.095559 -0.039391 -0.022186 0.046117 -0.019849 -0.067864 0.019808 
about 0.156377 0.223730 -0.028011 0.098648 0.082870 0.131962 -0.099020 0.058927 -0.129900 -0.045838 
over 0.042225 0.227864 -0.013071 0.051361 -0.011110 0.040602 0.019496 -0.064511 -0.229862 0.070367 
years 0.115446 0.279111 0.042837 0.272344 0.091375 0.162032 -0.170293 -0.170446 -0.193655 -0.047836 
states -0.145551 0.321688 0.259480 0.114085 -0.122652 -0.103816 0.058537 0.244676 -0.119319 -0.029184 
people -0.007529 0.288182 -0.032508 0.035706 0.134353 -0.142842 -0.200558 0.118505 -0.315355 -0.133696 
war 0.007279 0.339769 0.506245 0.000932 -0.083510 -0.008425 0.118753 -0.322300 -0.042261 0.008135 
during 0.058465 0.199828 0.314403 0.037420 -0.051281 0.037073 0.004552 -0.267449 -0.268182 0.029285 
united -0.150949 0.315149 0.232396 0.084137 -0.130250 -0.196008 0.055779 0.248418 -0.061446 0.092863 
known 0.094841 0.074722 0.165819 -0.185212 0.091725 -0.018713 -0.068732 0.014392 -0.055212 0.049273 
if 0.511398 0.172414 -0.263901 0.176765 0.086426 -0.281588 0.220319 -0.011535 -0.035048 0.037333 
called 0.130558 0.098698 0.085868 -0.235503 0.126518 -0.091716 0.053234 0.004942 -0.103988 0.112506 
use 0.030334 0.114168 0.000390 -0.094524 0.217215 -0.089899 0.341116 0.020892 -0.181286 0.041133 
th -0.098514 0.350267 0.129907 -0.126277 0.356500 0.122958 -0.068447 -0.270870 -0.093267 0.061446 
system -0.109875 0.239244 0.057162 -0.070185 0.113315 -0.036196 0.489422 0.030643 -0.010266 0.064394 
often 0.132297 -0.056933 0.018004 -0.215624 0.161627 -0.270723 0.068271 0.153348 -0.297998 -0.050645 
state -0.022292 0.418906 0.188386 0.035915 -0.224097 -0.100698 -0.077861 0.250752 -0.027819 -0.015121 
so 0.315449 0.103903 -0.043820 0.016360 0.019488 -0.123875 0.118842 -0.185808 -0.141382 -0.011357 
history -0.114269 0.302365 0.245531 -0.070473 0.311210 0.221267 0.017185 0.061386 0.096413 -0.101488 
will 0.402572 0.139620 -0.160991 0.245523 0.025775 -0.082842 0.152211 0.017829 -0.250129 -0.028337 
up 0.195873 0.000958 0.093104 0.079395 -0.018380 -0.005249 0.006590 -0.057708 -0.237085 0.127522 
while 0.140755 0.078237 0.097949 0.000701 -0.024237 -0.121293 0.055812 0.027155 -0.295615 -0.024429 
where 0.225832 0.056969 0.135628 -0.128266 -0.053834 -0.071128 0.073977 0.011495 -0.116569 0.041140 
city 0.036148 0.261923 0.288291 0.028809 -0.096963 0.062496 -0.204036 0.129167 -0.251789 0.164803 
being 0.194509 0.025961 0.103604 -0.082637 0.090531 -0.095282 0.091425 0.018184 -0.194371 0.023708 
english -0.188228 0.260720 0.051173 -0.267132 0.467481 -0.327296 -0.175837 0.101800 -0.033853 0.169336 
then 0.320019 0.063205 0.067715 0.149902 0.065100 -0.173753 0.067115 -0.126579 0.028009 0.101261 
any 0.224710 0.138394 -0.055745 0.008618 0.066596 -0.281126 0.139387 0.043458 -0.097364 -0.121645 
both 0.032533 0.080136 0.147656 -0.108184 0.000383 -0.191109 0.042536 0.033326 -0.187476 -0.013730 
under 0.034486 0.346136 0.159984 0.132706 -0.096185 -0.110998 0.127459 -0.083409 -0.018463 -0.011382 
out 0.241169 0.100181 0.145606 0.100064 0.020138 -0.043373 0.041295 -0.095958 -0.201562 0.054066 
made 0.087816 -0.018161 0.162605 -0.008122 0.055907 0.036108 0.037006 -0.104850 -0.155772 0.050879 
well 0.021046 0.051751 0.167349 -0.214161 0.191531 -0.077623 0.074339 0.063199 -0.206449 -0.063461 
her 0.313331 -0.048580 0.283074 0.211432 0.135718 -0.276239 -0.231280 0.018760 -0.247543 -0.075283 
e 0.104362 0.218105 -0.084987 -0.026687 0.153522 -0.189583 0.121333 0.231914 0.257657 0.199296 
number 0.037735 0.210301 -0.132843 -0.016022 0.113773 -0.058472 0.154480 0.033734 -0.107927 0.050935 
government -0.119429 0.506009 0.136476 0.200151 -0.241304 -0.206217 0.248280 -0.056857 -0.131372 -0.093930 
them 0.200786 0.087025 0.076105 -0.047510 0.005950 -0.167312 -0.009998 -0.112677 -0.285541 -0.030426 
m 0.358887 0.327865 0.014562 0.048029 0.070826 0.089416 0.036275 0.061456 0.232389 0.397899 
later 0.065459 0.010150 0.308962 0.082224 0.141268 -0.022139 0.045373 -0.307789 -0.159522 -0.024957 
since -0.061455 0.273068 -0.025486 0.070320 0.081855 0.034945 0.201366 -0.096277 -0.197698 0.016058 
him 0.419392 -0.015370 0.427329 0.177065 0.021315 -0.308083 -0.182272 -0.266023 -0.054778 -0.076553 
part 0.019230 0.181172 0.054201 -0.141531 0.011951 -0.034388 0.032724 -0.105258 -0.103799 0.056638 
name 0.040910 0.122151 0.035359 -0.185843 0.292786 -0.313663 -0.158322 -0.021561 -0.034227 0.271496 
c 0.056724 0.342001 -0.054201 0.006838 0.119163 -0.001978 0.078024 0.125725 0.200166 0.350955 
century -0.058404 0.273577 0.285604 -0.349583 0.419029 0.196112 -0.045661 -0.368345 -0.128013 -0.093460 
through 0.186121 0.079923 0.154944 -0.023091 -0.020038 0.067005 0.116197 -0.016488 -0.148619 -0.010887 
because 0.237929 0.123414 -0.050684 -0.038643 -0.001433 -0.107608 0.164947 -0.070714 -0.250065 -0.069716 
x 0.442118 0.318280 -0.028784 0.307448 0.316655 -0.155311 0.348063 0.143787 0.344803 0.373748 
university -0.055663 0.345497 0.577619 -0.070031 0.120585 0.116851 -0.191000 0.437558 0.232367 0.093469 
early -0.018725 0.092198 0.294015 -0.050333 0.267993 0.215745 -0.076195 -0.129641 -0.241749 -0.034192 
life 0.290310 0.040535 0.140084 0.116334 0.131145 0.073236 -0.269583 0.066877 -0.044037 -0.155770 
british -0.194444 0.231332 0.351433 -0.072784 0.024095 -0.142494 -0.003793 -0.016943 -0.034748 0.209530 
year 0.008230 0.301226 -0.070579 0.363845 0.097629 0.032643 -0.116270 -0.120353 -0.300844 0.152815 
like 0.195821 -0.085435 0.060696 -0.208485 0.170801 -0.089008 0.007805 0.058856 -0.153465 0.026163 
same 0.186412 0.140361 0.023411 -0.032627 0.024575 -0.177032 0.064742 0.013473 -0.095375 0.077153 
including -0.036998 0.087217 0.218089 0.020827 0.131035 -0.022809 -0.030915 0.180808 -0.190795 -0.032038 
became -0.029167 0.113761 0.408146 -0.012895 0.066891 -0.069555 -0.028927 -0.157778 -0.123351 0.010826 
example 0.123661 0.162627 -0.106473 -0.134586 0.173177 -0.205122 0.193483 0.120519 -0.032974 -0.012737 
day 0.080747 0.226653 -0.030355 0.120165 0.147261 0.045799 -0.202261 -0.169397 -0.281324 0.023641 
each 0.149652 0.171653 -0.169824 -0.100338 -0.029239 -0.305454 0.181393 0.065681 -0.162501 0.194956 
even 0.216701 0.042158 -0.013586 -0.112497 0.086552 -0.111795 0.121975 -0.055816 -0.350485 -0.137681 
work 0.106410 -0.044639 0.313787 0.066708 0.326125 0.006006 0.115402 -0.090413 -0.028763 -0.281314 
language -0.236257 0.309579 -0.102860 -0.304503 0.508099 -0.161526 0.050633 0.121588 -0.097495 -0.087484 
although 0.083756 0.113657 0.093794 -0.107190 0.049128 -0.021126 0.088828 -0.102057 -0.204403 -0.071786 
several 0.031419 0.103758 0.185347 -0.037716 0.054223 0.029035 0.086080 -0.028655 -0.219175 0.004989 
form 0.158870 0.165564 -0.050108 -0.330746 0.104896 -0.143416 0.093016 0.143442 -0.039392 -0.014155 
john 0.076488 0.184310 0.349515 0.162451 0.267840 -0.160092 -0.218691 -0.035996 0.148767 0.117006 
u -0.129148 0.315531 0.146585 0.296037 -0.016804 -0.126018 0.178921 0.131980 0.141667 0.226872 
national -0.196671 0.320645 0.251302 0.095738 -0.119085 -0.107977 0.039880 0.290607 -0.009361 0.100682 
very 0.210155 0.079010 0.005035 -0.132795 0.069266 0.018591 0.112898 0.050246 -0.311888 -0.025873 
much 0.098193 0.057732 0.131522 -0.100604 0.022719 0.040827 0.145614 -0.088630 -0.295127 -0.052026 
g 0.212325 0.279952 0.006900 -0.133864 0.152708 -0.222996 0.199663 0.344301 0.244105 0.182617 
french -0.180982 0.416851 0.221584 -0.259037 0.141032 -0.169583 -0.047554 0.059740 0.094565 0.229558 
before 0.150081 0.150359 0.107509 0.070223 0.033319 -0.097810 -0.015574 -0.243736 -0.212020 -0.002846 
general 0.070757 0.218315 0.226477 0.080626 -0.040247 -0.155949 0.228008 0.150298 0.105521 -0.011479 
what 0.212258 0.119023 0.033907 -0.000077 0.270777 -0.099908 0.016658 -0.087881 -0.076586 -0.187895 
t 0.314180 0.048444 0.014946 0.303318 0.204021 -0.171168 0.038313 0.109700 0.175457 0.252524 
against 0.050968 0.206789 0.339541 0.080182 -0.107485 -0.272955 0.074781 -0.122542 -0.126149 -0.059360 
n 0.218737 0.491979 -0.052042 -0.003728 0.127716 -0.179716 0.169577 0.044451 0.392722 0.323075 
high 0.183116 0.070703 0.097207 -0.018500 -0.158908 0.151265 0.179937 0.236387 -0.250727 0.100967 
links -0.159846 0.384454 0.101221 0.106460 0.430691 0.225062 -0.006413 0.488661 0.064635 0.034457 
could 0.237778 0.019747 0.097400 0.070308 0.052701 -0.064703 0.214081 -0.221120 -0.125865 -0.176546 
based -0.089472 0.089576 0.113461 -0.113188 0.255819 -0.036608 0.230532 0.109319 -0.090342 -0.041358 
those 0.088962 0.205802 -0.053796 -0.024379 -0.007289 -0.202135 -0.002635 0.038411 -0.278932 -0.178553 
now 0.002818 0.066368 0.114231 -0.027490 0.085619 0.025251 0.034151 -0.094297 -0.189218 0.051960 
second 0.088864 0.140072 0.037480 0.085924 0.085636 -0.094590 0.026259 -0.142318 -0.035901 0.125578 
de 0.044709 0.477861 0.405695 -0.266524 0.083422 -0.021831 -0.240160 0.170657 0.353525 0.132451 
music -0.064122 -0.061742 0.255154 -0.222979 0.527054 -0.149305 -0.150652 0.306660 -0.282589 0.109595 
another 0.140582 -0.000827 0.003503 0.021628 0.127008 -0.105105 0.074234 -0.049103 -0.138488 0.037195 
large 0.090715 0.164215 0.053140 -0.151019 -0.118823 0.185268 0.229551 0.058493 -0.341285 0.080052 
she 0.454152 -0.007057 0.292996 0.333045 0.115266 -0.339184 -0.314173 0.099610 -0.309684 -0.121736 
f 0.169549 0.253408 0.171437 0.165459 0.058892 -0.027825 0.260815 0.054628 0.197399 0.494731 
external -0.144098 0.314748 0.067203 0.095698 0.392591 0.121597 -0.008657 0.535767 0.112891 -0.006810 
german -0.146385 0.316215 0.346830 -0.223012 0.150701 -0.057912 0.055204 -0.179822 0.149218 0.080467 
different 0.175318 0.058903 -0.039391 -0.239273 0.221310 -0.159218 0.224165 0.218368 -0.140382 -0.080740 
modern 0.057298 0.115068 0.179414 -0.330784 0.270359 0.059599 0.109034 -0.065044 -0.010686 -0.118335 
great 0.153265 0.200452 0.279395 -0.134615 0.087688 0.038309 -0.150771 -0.144719 -0.175287 -0.029086 
do 0.237941 0.135004 -0.187163 0.062837 0.133120 -0.191283 0.066762 0.159106 -0.204862 -0.109073 
common 0.086118 0.143589 -0.078654 -0.218775 0.152289 -0.100937 0.070280 0.145096 -0.281313 -0.054939 
set 0.143542 0.069496 0.022294 0.052729 0.164824 -0.201827 0.244109 -0.002841 0.084285 0.122730 
list -0.132687 0.370570 0.087996 -0.059330 0.444889 -0.027131 0.047641 0.508727 0.035141 0.119353 
south -0.062045 0.416586 0.249711 -0.182965 -0.047443 0.077778 -0.143132 0.217701 -0.247423 0.294139 
series 0.143951 -0.099465 0.277360 0.166352 0.356673 0.028876 0.129463 -0.126419 -0.083043 0.211513 
major -0.086631 0.176879 0.145238 -0.018327 0.071184 0.092359 0.112682 0.042599 -0.185380 0.114289 
game -0.051152 -0.130978 0.245191 0.063608 0.301218 -0.422646 0.296509 -0.036001 -0.226047 0.501459 
power 0.079473 0.246688 0.173417 0.031943 -0.125773 -0.056976 0.268852 -0.165450 0.013266 -0.085197 
long 0.149309 0.159175 0.074815 -0.086631 0.040913 0.028911 0.034065 -0.074087 -0.252081 0.178378 
country -0.165267 0.514964 -0.043634 0.043681 -0.141589 -0.019213 0.002409 0.042837 -0.250189 0.119395 
king 0.176366 0.323676 0.318437 -0.094508 0.183242 -0.301207 -0.291434 -0.433968 0.049193 0.184044 
law 0.042371 0.382038 0.029439 0.178240 -0.054072 -0.217587 0.151587 0.122680 0.228127 -0.276738 
group 0.066288 0.095226 0.084593 -0.077780 0.108507 -0.269791 0.050217 0.308204 0.015578 0.017327 
film 0.113785 -0.198777 0.445902 0.086369 0.378481 -0.038828 0.028659 0.141014 -0.116394 0.095087 
still 0.044604 0.094793 0.022512 -0.078907 0.114500 -0.021752 0.055584 -0.086577 -0.357100 0.043995 
until 0.089874 0.232645 0.186248 0.053542 0.010220 0.054798 -0.042228 -0.302577 -0.222200 0.061553 
north -0.063205 0.369811 0.277635 -0.241702 -0.033100 0.040514 -0.072315 0.170117 -0.162640 0.259599 
international -0.192294 0.429316 0.255695 0.122106 -0.036092 -0.008586 0.222595 0.323307 -0.020845 0.056509 
term -0.063135 0.147532 -0.014418 -0.200275 0.181633 -0.332724 0.179844 0.129575 -0.108670 -0.082912 
we 0.602648 0.182642 -0.167434 0.249160 0.287621 -0.161578 0.092340 -0.082820 0.150882 -0.127222 
end 0.150983 0.091025 0.139039 0.023047 0.061230 -0.065525 0.059720 -0.281486 -0.079177 0.098459 
book 0.122681 0.091565 0.128174 0.085554 0.568900 0.052618 -0.114598 -0.104509 0.145113 -0.214098 
found 0.242472 0.156342 0.023569 -0.112951 0.068812 0.137625 -0.062873 0.030518 -0.144157 -0.109532 
own 0.059647 -0.027157 0.169367 0.030511 0.114059 -0.268838 0.035269 0.016345 -0.189494 -0.131441 
political -0.198202 0.412798 0.274507 -0.102882 -0.067560 -0.269790 0.114562 -0.032202 -0.087068 -0.301252 
party -0.203686 0.307440 0.266785 0.127814 -0.001890 -0.515528 0.150064 -0.074701 -0.192378 0.027258 
order 0.077357 0.164086 -0.033115 0.003472 -0.001405 -0.221073 0.078740 -0.056304 -0.015682 -0.010169 
usually 0.156045 0.140587 -0.134898 -0.224473 0.090652 -0.297278 0.159487 0.208597 -0.290931 0.198495 
president -0.022898 0.502198 0.328316 0.418951 -0.181157 -0.365507 -0.000210 0.058467 0.142990 0.084884 
church 0.000734 0.496303 -0.051745 0.032037 0.223941 -0.274077 -0.348467 -0.095506 -0.085016 -0.239152 
you 0.498946 0.094449 -0.259036 0.438107 0.296321 -0.341241 -0.094391 0.086378 -0.114085 0.163544 
death 0.263215 0.185474 0.236438 0.184828 0.159302 0.059061 -0.273557 -0.151446 -0.060132 -0.171687 
theory 0.319372 0.184629 0.337336 -0.223767 0.245342 -0.063490 0.410942 0.064499 0.319114 -0.337042 
area 0.080841 0.450142 0.026468 -0.182957 -0.116488 0.219889 0.023191 0.110567 -0.209206 0.215482 
around 0.127042 0.118406 0.148970 -0.126076 0.033116 0.141752 -0.041612 -0.052262 -0.205719 0.075993 
include -0.003554 0.143466 0.139944 -0.153715 0.179658 -0.093135 0.161956 0.299941 -0.231089 0.032001 
god 0.567926 0.428264 -0.107729 -0.155282 0.165085 -0.230429 -0.449738 -0.104517 0.070209 -0.313576 
ii 0.042966 0.169087 0.439084 -0.002368 0.179221 -0.031249 0.096440 -0.256176 0.079495 0.211800 
way 0.251118 0.051889 0.085736 -0.013088 0.120546 -0.140334 0.179032 -0.041043 -0.081649 -0.030279 
did 0.129951 0.061377 0.156075 0.105791 0.080904 -0.124400 0.014903 -0.293614 -0.159022 -0.128903 
military 0.107786 0.480327 0.353567 0.181212 -0.360865 -0.043052 0.231541 -0.015093 0.041258 0.014150 
population 0.063523 0.818784 -0.327685 0.021409 0.008613 0.168293 -0.294957 0.162116 -0.300539 -0.086701 
using 0.187078 0.012672 0.116074 -0.022446 0.190008 -0.027585 0.367780 0.058865 -0.048647 0.057031 
though 0.096828 0.101706 -0.014580 -0.100703 0.089497 -0.142473 -0.008709 -0.054001 -0.312991 -0.062187 
small 0.123342 0.205838 0.055793 -0.217089 -0.081497 0.071815 0.104645 0.123180 -0.293637 0.152327 
following 0.039943 0.237849 0.119897 0.076770 0.056144 -0.123806 0.086530 -0.168414 -0.059041 -0.000322 
within 0.067555 0.231592 0.064888 -0.079715 -0.066226 -0.136853 0.053425 0.063385 -0.154773 -0.083191 
non 0.009322 0.269425 -0.033446 -0.086075 0.113395 -0.120328 0.173305 0.194366 -0.113649 -0.149522 
human 0.335183 0.162265 0.116325 -0.006231 0.006465 -0.022534 0.002891 0.362977 0.017261 -0.330858 
left 0.243936 0.108243 0.232887 0.007974 -0.113525 -0.342947 0.031657 -0.165377 -0.037438 0.241020 
main -0.025001 0.292214 0.090224 -0.067200 0.109095 0.022849 0.051934 0.178266 -0.086012 0.105609 
among -0.001281 0.166536 0.100628 -0.128368 0.138754 -0.088804 -0.109684 0.092325 -0.304921 -0.154755 
point 0.298808 0.166849 0.032774 -0.150026 -0.040958 0.032690 0.110282 -0.150519 -0.068462 0.073078 
r 0.239058 0.296750 0.172341 -0.063752 0.183532 -0.111507 0.014514 0.181912 0.355499 0.228444 
due 0.075346 0.091253 0.153772 0.040752 -0.027971 0.116892 0.099028 0.000882 -0.307636 -0.015301 
p 0.246439 0.331362 0.028022 0.134013 0.272236 -0.015484 0.082178 0.048504 0.474359 0.069330 
considered 0.098052 0.041463 0.055798 -0.166256 0.043598 -0.197943 -0.006530 0.047021 -0.143335 -0.140306 
public -0.111856 0.188042 0.169630 0.346142 0.081823 -0.109313 0.121163 0.171499 -0.260242 -0.230375 
popular -0.106182 -0.081737 0.214579 -0.126564 0.333134 -0.096301 -0.008241 0.089322 -0.312509 0.082611 
computer 0.048720 0.004992 0.251990 0.065459 0.455449 -0.054972 0.529556 0.167678 0.054510 0.073518 
west 0.034525 0.445245 0.224959 -0.220658 -0.093253 0.051305 -0.203783 -0.027532 -0.156109 0.262105 
family 0.091523 0.198107 0.102248 -0.035188 0.145664 -0.156952 -0.363147 0.128095 -0.240892 -0.095956 
east -0.030884 0.456260 0.298509 -0.347879 -0.110500 0.113658 -0.029171 -0.077788 -0.173531 0.206834 
information 0.019544 0.208849 -0.003362 0.276159 0.341124 0.029122 0.261114 0.397475 -0.013375 -0.159123 
important -0.034524 0.115865 0.116649 -0.205208 0.080289 0.009313 0.165815 0.050506 -0.107359 -0.165728 
european -0.316927 0.428133 0.164811 -0.202781 0.088427 -0.076531 0.147834 -0.015228 -0.231753 -0.002718 
man 0.339797 -0.053634 0.178116 0.117253 0.099544 -0.157926 -0.246492 0.057956 0.105560 0.029270 
sometimes 0.261730 0.048119 -0.072510 -0.270681 0.167371 -0.231606 0.045293 0.118351 -0.224929 0.078891 
right 0.189087 0.230617 0.043289 0.003691 -0.178491 -0.634075 0.117767 -0.032311 0.133910 0.142294 
old 0.064720 0.159386 -0.072070 -0.041037 0.272330 0.019120 -0.240307 -0.010149 -0.268599 0.016281 
free -0.102579 0.191977 0.060356 0.117547 0.103936 -0.149352 0.168187 0.189670 -0.157101 -0.110546 
word 0.159916 0.193603 -0.123842 -0.490661 0.372611 -0.431009 -0.113240 0.004262 0.035876 0.060953 
without 0.159252 0.093150 0.002963 0.076650 0.047697 -0.156793 0.168593 -0.033519 -0.191968 -0.055945 
last 0.157523 0.212616 -0.016560 0.162930 0.120900 -0.031262 -0.167715 -0.262755 -0.195080 0.156060 
us 0.052871 0.250650 0.108919 0.319987 -0.028574 0.070616 0.080263 0.078606 -0.053774 0.113125 
members -0.075209 0.285023 -0.004817 0.123213 0.035033 -0.438167 -0.176400 0.269051 -0.193698 0.026521 
given 0.248125 0.194237 -0.067080 0.030436 0.047163 -0.111733 0.089386 -0.025456 0.055673 -0.016561 
times 0.196286 0.183430 -0.047221 0.105172 0.126652 0.037993 -0.088686 0.008391 -0.057863 0.012211 
roman 0.063636 0.519586 0.117859 -0.220089 0.237208 -0.045249 -0.240993 -0.348734 -0.124782 -0.111392 
make 0.200915 0.057183 0.049962 0.051718 0.141560 -0.133025 0.204536 0.088924 -0.271564 -0.063868 
h 0.328225 0.287055 0.120650 -0.014936 0.179629 0.001463 -0.017494 0.195193 0.322819 0.280438 
age 0.241156 0.379396 0.053596 0.207039 0.000932 0.135424 -0.434459 0.135027 -0.140622 -0.076264 
place 0.117198 0.183516 0.061919 0.045125 0.024278 -0.055938 -0.061152 -0.082172 -0.185836 0.056021 
l 0.121923 0.265178 0.196933 -0.063838 0.241428 -0.037767 -0.078050 0.202639 0.377648 0.207572 
thus 0.234067 0.182306 -0.023043 -0.174636 -0.037463 -0.130728 0.158944 -0.135414 -0.077162 -0.095508 
science 0.222167 0.233080 0.402973 0.074695 0.295338 0.034969 0.068510 0.336540 0.129444 -0.292725 
case 0.155953 0.175223 -0.097340 0.145411 0.097001 -0.369757 0.274878 0.113153 0.046926 0.033267 
become 0.071303 0.113845 0.114297 0.045756 0.062475 -0.037958 0.013622 -0.020222 -0.282311 -0.132591 
systems -0.001833 0.165473 0.078045 -0.070776 0.213032 0.070732 0.545375 0.170733 -0.074726 0.000391 
union -0.285668 0.466020 0.263237 0.028977 -0.042355 -0.157853 0.250588 -0.084152 -0.136931 0.054513 
born 0.080120 0.257099 0.333588 0.071460 0.109724 -0.130518 -0.485883 0.143391 0.011196 0.075231 
york 0.056603 0.227987 0.388070 0.322533 0.171918 0.135520 -0.234618 0.254548 0.042213 0.063219 
line 0.014611 0.167894 -0.016389 -0.016454 0.099459 0.027024 0.141320 -0.000389 -0.193276 0.449034 
countries -0.282526 0.501439 0.035025 -0.065136 -0.030605 -0.088911 0.165626 0.093158 -0.319333 0.049554 
does 0.314552 0.166900 -0.155144 0.066274 0.067748 -0.272254 0.179352 0.092859 -0.135060 -0.136000 
isbn 0.178421 0.453632 0.343650 0.304166 0.521862 0.338886 -0.179455 0.261366 0.440620 0.117399 
st 0.025656 0.282075 0.370160 0.027347 0.261147 0.146517 -0.333307 -0.115217 0.015358 0.128018 
control 0.109391 0.184162 0.243641 0.075401 -0.177030 -0.083931 0.334541 -0.002298 -0.051002 -0.117385 
various -0.073595 0.128987 0.168362 -0.173271 0.172091 -0.005595 0.135535 0.132917 -0.132698 -0.132824 
others 0.067017 0.069607 0.055598 -0.061330 0.137166 -0.204218 -0.034358 0.074475 -0.206401 -0.192620 
house 0.065188 0.211822 0.110712 0.193061 -0.003543 -0.367453 -0.318709 0.029623 -0.104601 0.196975 
article -0.142830 0.377645 0.082584 -0.035449 0.267909 0.075318 0.056288 0.344911 0.180387 -0.145775 
island 0.038081 0.427966 0.186620 -0.189896 -0.136691 0.105318 -0.160047 -0.014543 -0.240069 0.333705 
should 0.314622 0.140851 -0.125744 0.121003 0.062138 -0.244573 0.179933 0.003983 -0.094357 -0.216474 
led -0.034804 0.153736 0.368688 0.043434 -0.112280 0.035741 0.056710 -0.201632 -0.126908 -0.025683 
back 0.162991 0.003936 0.144707 -0.031516 0.143476 -0.145066 0.012280 -0.207147 -0.218466 0.159743 
period 0.068159 0.141845 0.057534 -0.120607 0.183788 0.141242 -0.009661 -0.313976 -0.221768 -0.084481 
player 0.080504 0.035467 0.108494 0.129029 0.129859 -0.528741 0.265882 0.091927 -0.171861 0.499818 
europe -0.141106 0.383276 0.257350 -0.233181 0.096178 0.213593 0.050987 -0.103854 -0.280426 -0.109747 
languages -0.169196 0.497829 -0.181064 -0.402066 0.571382 -0.239907 0.032030 0.121790 -0.070993 0.022163 
central -0.117219 0.445895 0.122048 -0.117991 0.038054 0.076363 -0.010001 0.090993 -0.059802 0.102829 
water 0.548337 0.315608 0.082998 -0.206718 -0.200917 0.347270 0.100210 0.131088 -0.149737 0.141716 
few 0.070499 0.135950 0.091936 -0.026260 0.117022 0.086165 0.003519 -0.070342 -0.375551 -0.016488 
western -0.037423 0.376645 0.163486 -0.324086 0.011181 -0.021133 -0.075174 0.011532 -0.318337 -0.021565 
home -0.071022 0.077664 0.284775 0.160050 -0.001808 0.013921 -0.096494 0.180840 -0.341869 0.157708 
began -0.026115 0.090798 0.360892 0.068190 0.214110 0.134563 0.075362 -0.193289 -0.231630 -0.052204 
generally 0.107867 0.157983 -0.046561 -0.238713 0.033556 -0.129366 0.190674 0.140838 -0.253777 0.018089 
less 0.208186 0.164428 -0.170383 -0.024139 -0.026736 0.001733 0.199990 0.118104 -0.414484 0.078680 
k 0.130900 0.201938 0.170335 -0.035949 0.284971 -0.032604 0.124507 0.142081 0.292669 0.288986 
similar 0.122236 0.053717 0.018095 -0.264935 0.142451 -0.127463 0.111086 0.087767 -0.155754 0.053929 
written 0.023962 0.155920 -0.020589 -0.014428 0.602107 -0.228021 0.041283 -0.314115 -0.022551 -0.025066 
original 0.097547 0.007424 0.065574 -0.003755 0.356377 -0.051223 0.039789 -0.156068 -0.069085 0.065280 
best 0.107821 -0.024081 0.181378 0.169108 0.250931 -0.109970 -0.089862 0.207908 -0.143302 0.059041 
must 0.329023 0.182149 -0.156403 0.220826 -0.057854 -0.320386 0.252934 0.033015 -0.115005 -0.119566 
according 0.162720 0.317523 -0.109486 -0.009200 0.075649 0.007500 -0.146556 -0.004018 -0.001068 -0.199901 
school 0.020534 0.163955 0.476016 0.073186 0.014768 -0.031154 -0.242299 0.330430 -0.130926 -0.120212 
france -0.339703 0.516808 0.301617 -0.100914 0.115848 -0.025573 0.095884 -0.131527 -0.029076 0.185601 
air 0.257510 0.284251 0.351005 0.083240 -0.332243 0.081753 0.344354 0.131699 -0.034084 0.417733 
single 0.094232 0.033988 -0.124494 0.057537 0.207008 -0.074852 0.196288 0.055126 -0.235778 0.278147 
force 0.255105 0.346296 0.338515 0.024024 -0.403912 -0.055375 0.338130 -0.070139 0.138422 0.097957 
v 0.100729 0.317724 0.109504 0.237032 0.193801 -0.155506 0.257242 0.048587 0.360572 0.182146 
land 0.238190 0.588822 -0.005981 -0.083218 -0.272733 0.274099 -0.075775 -0.116599 -0.115557 0.073875 
groups -0.058886 0.342476 0.018298 -0.273308 -0.035445 -0.252917 -0.047935 0.378029 -0.144335 -0.165744 
down 0.319573 -0.022864 0.136080 0.090083 -0.110240 -0.099556 0.062556 -0.144188 -0.197525 0.231310 
how 0.357950 -0.042792 0.013408 0.159410 0.297965 -0.058005 0.122713 0.145305 -0.065853 -0.191301 
works 0.099010 0.036940 0.204059 -0.085092 0.523200 0.006142 -0.032444 -0.089756 -0.038372 -0.111631 
development -0.092854 0.187530 0.368010 -0.046683 0.148670 0.297206 0.328207 0.104261 -0.120516 -0.173581 
official -0.310244 0.525504 -0.008101 0.090395 0.359216 -0.212125 -0.085679 0.188216 -0.149938 -0.021533 
support -0.170883 0.171222 0.179199 0.075350 0.001806 -0.086474 0.357740 -0.098581 -0.163615 -0.085694 
england -0.139903 0.310822 0.177325 0.012980 0.109230 -0.253126 -0.345042 -0.102574 -0.160772 0.197466 
j 0.160156 0.227339 0.220217 0.081967 0.255651 -0.070520 -0.001931 0.335571 0.472646 0.178367 
rather 0.196286 0.150566 0.033367 -0.201949 0.097872 -0.242013 0.174145 0.042650 -0.195872 -0.136665 
data 0.176430 0.274827 -0.216420 0.185191 0.352576 0.154266 0.575649 0.220614 -0.084942 -0.014953 
space 0.374648 -0.015565 0.128059 0.020341 0.117332 0.124155 0.319944 0.087685 0.200446 0.184928 
greek 0.172390 0.420454 0.098181 -0.485671 0.304105 0.078595 -0.139222 -0.115099 0.035440 0.009591 
km 0.200773 1.025952 -0.047011 0.014802 -0.037719 0.355386 0.118390 0.030045 -0.098167 0.691943 
named 0.144366 0.086731 0.288904 -0.051740 0.052304 -0.035672 -0.193799 0.031599 0.007279 0.132390 
germany -0.235673 0.418793 0.404697 -0.054549 0.145984 -0.016867 0.104680 -0.209071 -0.073088 0.146877 
just 0.276803 0.009538 0.041790 0.026758 0.075062 -0.093508 0.026406 -0.061522 -0.199442 0.108958 
games -0.190332 -0.099186 0.243795 0.028437 0.336627 -0.318359 0.206565 0.124033 -0.405730 0.280074 
said 0.274606 0.040576 0.109315 0.177934 0.049175 -0.259624 -0.050746 -0.101719 -0.026330 -0.099845 
version -0.028871 0.060133 -0.046360 0.098299 0.595443 -0.020078 0.152689 -0.248051 -0.013893 0.226017 
late -0.046980 0.107024 0.293997 -0.010160 0.267926 0.121469 0.000212 -0.199978 -0.341061 0.005712 
earth 0.546611 0.262319 0.166178 -0.247885 0.100144 0.333547 -0.087112 0.018233 0.128217 0.009671 
company -0.237429 -0.019357 0.427390 0.259566 0.163413 0.105482 0.338853 -0.003730 -0.174266 0.203606 
every 0.236146 0.191552 -0.144085 0.140065 0.107468 -0.193284 0.046405 0.023037 -0.102960 0.080021 
economic -0.223139 0.587123 0.199142 0.115871 -0.124177 0.159868 0.317971 -0.027912 -0.347202 -0.209306 
short 0.111210 0.045251 0.054823 0.036682 0.203389 0.056979 0.024716 -0.029351 -0.182033 0.209782 
published 0.121467 0.180554 0.269276 0.286217 0.469050 0.212885 -0.044431 -0.054552 0.082481 -0.199391 
black 0.234570 0.021551 0.164393 -0.177482 -0.006416 -0.068688 -0.251237 0.198124 -0.128332 0.145970 
army 0.178446 0.300854 0.431953 -0.028942 -0.325040 -0.250853 0.161168 -0.247673 0.068675 0.232812 
off 0.261849 0.009612 0.224634 0.154259 -0.118906 -0.113509 0.108975 -0.039212 -0.338337 0.362648 
london -0.017550 0.283220 0.473794 0.029393 0.230232 0.210322 -0.120435 0.094648 -0.040373 0.122024 
million -0.110855 0.589886 -0.200199 0.336987 0.101166 0.333985 -0.066075 0.044779 -0.357717 0.102195 
body 0.441401 0.055680 0.081156 -0.078675 -0.186633 -0.085587 -0.139397 0.263998 -0.011353 0.026360 
field 0.242801 0.028826 0.291648 -0.175473 -0.120089 -0.143271 0.320760 0.201379 0.176562 0.179132 
christian 0.058452 0.345928 0.043608 0.014264 0.204431 -0.146635 -0.238718 0.063301 -0.092807 -0.363746 
either 0.200543 0.160973 -0.085000 -0.059564 -0.020609 -0.304720 0.132750 0.084956 -0.196438 0.068219 
social -0.062275 0.257575 0.332366 -0.051292 0.000988 -0.281532 0.068781 0.313430 -0.231244 -0.478120 
empire 0.079738 0.585320 0.327765 -0.325495 0.181800 -0.050292 0.049746 -0.563780 -0.044448 -0.057384 
o 0.124743 0.263501 0.033643 -0.057884 0.213054 -0.053399 -0.147277 0.162122 0.209862 0.302287 
developed -0.012550 0.083092 0.343221 -0.228620 0.281758 0.154478 0.327483 -0.047154 -0.146329 -0.088025 
standard -0.061173 0.256136 -0.138512 -0.050318 0.314598 0.017207 0.329691 0.007175 -0.079620 0.209006 
court 0.040853 0.416605 0.023093 0.278652 -0.044424 -0.366466 -0.016016 0.126401 0.139209 -0.192959 
service -0.095726 0.297822 0.116862 0.384849 -0.097957 0.023757 0.301188 0.151473 -0.161238 0.279350 
kingdom -0.176286 0.475750 0.179885 -0.117656 0.069869 -0.130187 -0.084877 -0.120945 -0.180279 0.081432 
along 0.049859 0.104682 0.217363 -0.194134 -0.064033 0.076739 -0.029712 -0.001494 -0.188034 0.086735 
college -0.047288 0.397171 0.852866 -0.121546 0.137248 -0.007482 -0.320124 0.578371 0.045447 0.124323 
republic -0.298434 0.613811 0.125782 -0.039804 0.003116 -0.205340 0.137160 -0.039639 -0.013103 0.144738 
sea 0.340046 0.501079 0.094823 -0.327683 -0.128285 0.198501 -0.039576 -0.023768 -0.130738 0.279104 
america -0.183769 0.152441 0.278289 -0.010487 0.086170 0.117891 -0.165162 0.195207 -0.245272 0.051956 
today -0.065184 0.207376 0.022018 -0.162284 0.245463 0.037856 0.030154 -0.109673 -0.216287 -0.117806 
result 0.196311 0.159479 0.031193 0.047662 -0.132637 0.022958 0.225163 -0.090926 -0.221583 -0.097381 
held -0.075290 0.264108 0.025279 0.095881 -0.044839 -0.246170 -0.057757 -0.141693 -0.186279 0.060718 
team 0.072702 0.025356 0.293087 0.284014 -0.093188 -0.376595 0.077248 0.166134 -0.268506 0.454224 
light 0.590587 0.037585 0.143756 -0.179629 0.082934 0.173461 0.087792 0.077660 0.102943 0.296782 
means 0.177551 0.181209 -0.119283 -0.177471 0.088632 -0.210633 0.138429 0.053304 -0.042210 0.002107 
never 0.228433 0.001215 0.193916 0.046124 0.131902 -0.169990 -0.059399 -0.272334 -0.130119 -0.069491 
especially 0.052833 0.096774 0.216349 -0.278879 0.074183 -0.032505 0.061357 0.110863 -0.367776 -0.115138 
third -0.024465 0.179726 0.045788 0.103277 0.077419 -0.046062 0.026164 -0.146833 -0.043432 0.097614 
further 0.051976 0.186866 0.111150 0.001918 -0.010492 0.005547 0.124665 -0.047182 -0.066035 -0.117823 
character 0.212568 -0.177585 0.220287 -0.044900 0.399922 -0.360174 0.026099 0.004249 -0.015965 0.190969 
forces 0.175945 0.408258 0.439513 -0.093758 -0.347146 -0.086703 0.302615 -0.157540 0.050734 0.108294 
take 0.211123 0.059422 0.028463 0.193162 -0.080564 -0.200227 0.130230 0.006429 -0.217892 -0.020206 
men 0.305778 0.055454 0.171100 0.132245 -0.104963 -0.307867 -0.303496 0.166411 -0.121305 -0.047330 
society -0.062773 0.196266 0.425156 -0.120971 0.065880 -0.089878 0.003035 0.276724 -0.006544 -0.331654 
show 0.245410 -0.009435 0.145428 0.259364 0.267539 -0.060858 -0.046839 0.175701 -0.195752 0.110102 
open -0.118278 0.312939 0.005230 0.074215 0.243010 -0.051641 0.117523 0.140306 -0.063386 0.272122 
possible 0.315232 0.174141 -0.000538 -0.044502 0.098050 -0.049577 0.314037 -0.002521 -0.068374 -0.141754 
fact 0.242042 0.120287 0.027635 -0.052954 0.073325 -0.012614 0.089759 -0.071333 -0.072424 -0.152159 
battle 0.179876 0.209004 0.376087 -0.114549 -0.108894 -0.210669 -0.102418 -0.441649 -0.012551 0.261932 
took 0.025260 0.118128 0.314557 0.165078 -0.046440 -0.136148 -0.074800 -0.300721 -0.182786 0.053701 
former -0.090445 0.161056 0.325365 0.121487 -0.022527 -0.222156 -0.019231 0.052906 -0.060900 0.035421 
books 0.060804 0.126101 0.144683 0.129437 0.594014 0.097226 -0.073825 -0.009598 0.116487 -0.157251 
soviet -0.152587 0.397493 0.476559 -0.057952 0.019903 0.009834 0.361719 -0.323866 -0.096027 -0.084616 
river 0.283301 0.478284 0.264916 -0.194303 -0.181901 0.178393 -0.048595 0.023596 -0.148415 0.250136 
children 0.227149 0.223678 0.069313 0.236512 0.070084 -0.065017 -0.528745 0.303596 -0.228311 -0.238367 
having 0.246741 0.067199 0.140921 0.008458 -0.085679 -0.157230 0.017353 0.000536 -0.227258 0.029942 
good 0.267998 0.021815 -0.011172 0.209120 0.157839 -0.036913 -0.046449 0.017011 -0.155933 -0.151191 
local -0.166821 0.273938 0.064856 -0.026744 -0.109055 -0.144493 0.095733 0.158738 -0.390280 0.027159 
current 0.053493 0.255576 0.013873 0.137829 0.023150 0.032932 0.180296 0.137271 -0.004600 0.026361 
son 0.330515 0.282395 0.258285 -0.029822 0.049784 -0.267534 -0.391065 -0.243155 0.034907 0.059480 
process 0.197913 0.168629 0.059697 0.141032 0.069046 0.061336 0.402146 0.066693 -0.083989 -0.089318 
natural 0.315272 0.480035 0.081956 -0.190181 -0.003557 0.336493 0.160939 0.198427 -0.003295 -0.106451 
present 0.082650 0.234650 -0.016514 -0.046054 0.011017 0.036017 -0.135462 0.091949 -0.053574 -0.059053 
himself 0.357348 -0.023318 0.422803 0.062727 0.139521 -0.358558 -0.127018 -0.311918 -0.019346 -0.179877 
islands -0.100267 0.569934 -0.000990 -0.301285 -0.035443 0.059211 -0.017937 0.011166 -0.113419 0.319596 
total 0.049001 0.683880 -0.239120 0.203411 -0.103126 0.124187 0.095221 0.189694 -0.083007 0.257241 
near 0.248821 0.255690 0.177432 -0.113470 -0.161632 0.124877 -0.114998 -0.093135 -0.100130 0.235617 
white 0.274661 0.127406 0.216741 -0.178954 -0.033127 -0.210339 -0.206118 0.326555 -0.084555 0.336671 
days 0.273941 0.278407 -0.138828 0.274521 0.172468 0.124339 -0.174885 -0.321120 -0.315418 0.094711 
person 0.280321 0.073663 -0.077508 0.070880 0.060802 -0.514461 0.010602 0.235554 -0.072386 -0.116600 
itself 0.176932 0.171193 0.036586 -0.093772 0.119851 -0.217940 0.166153 -0.086955 -0.049513 -0.151608 
seen 0.181686 0.008258 0.180946 -0.118536 0.112188 -0.077747 0.005903 -0.056421 -0.173453 -0.004757 
culture -0.080737 0.134414 0.275046 -0.390344 0.245074 0.053573 -0.156119 0.294758 -0.295777 -0.261091 
little 0.195367 0.066574 0.100836 0.107543 0.049277 0.128468 -0.034732 -0.070795 -0.217125 -0.018348 
above 0.285538 0.231644 -0.266469 -0.132026 0.143570 -0.100837 0.064388 0.004210 -0.014386 0.236739 
software -0.135649 0.072935 0.103697 0.179790 0.499511 -0.132414 0.514361 0.073594 -0.155692 -0.101108 
largest -0.129185 0.434829 0.083444 -0.031345 0.015926 0.160996 -0.029670 0.206183 -0.318603 0.182917 
words 0.144952 0.123004 -0.250781 -0.244060 0.535034 -0.442177 -0.038001 0.070381 -0.073750 -0.028732 
upon 0.213438 0.129032 0.122742 0.027316 0.025495 -0.202930 -0.007592 -0.159303 -0.078833 -0.173044 
level 0.118828 0.230455 -0.070584 0.057005 -0.087571 -0.096798 0.318347 0.226953 -0.171189 0.073665 
father 0.358211 0.105446 0.409121 0.004095 0.005737 -0.127805 -0.382823 -0.005407 -0.074820 -0.099712 
created 0.081351 0.047519 0.266437 -0.040437 0.068396 0.010231 0.106465 -0.043688 -0.001141 -0.060759 
side 0.269653 0.107554 0.055041 -0.161844 -0.126188 -0.230295 0.048678 -0.019192 -0.158661 0.304356 
red 0.246056 0.015863 0.282311 -0.278997 -0.044086 -0.136135 0.014198 0.160535 -0.041287 0.373547 
references -0.017328 0.256650 0.053906 0.104997 0.347318 0.189568 -0.077808 0.398801 0.287140 -0.061540 
press 0.099405 0.385730 0.269824 0.287598 0.339204 0.233717 -0.115012 0.272335 0.261150 -0.108557 
full 0.067006 0.216441 0.098845 0.160864 0.187997 -0.042460 0.067841 -0.085160 -0.088004 0.044199 
region 0.043248 0.498048 0.010484 -0.339652 -0.177497 0.056477 0.007999 0.023886 -0.167526 0.030162 
almost 0.061598 0.081761 0.047259 -0.101985 -0.050311 0.084446 0.039356 -0.161722 -0.272672 0.067777 
image 0.114255 0.120388 0.154459 -0.293751 0.351122 0.123520 0.089325 0.233099 0.047048 0.335741 
al 0.335779 0.485220 0.150060 -0.011887 -0.083298 0.188499 -0.225891 0.052524 0.285366 -0.086077 
famous 0.035231 0.011843 0.383103 -0.169577 0.240823 -0.016639 -0.136856 0.124213 -0.066759 0.090835 
play 0.131878 -0.126491 0.175364 -0.026074 0.165033 -0.444475 0.035296 0.074994 -0.352875 0.278682 
came 0.002938 0.084610 0.265375 -0.082560 0.049125 -0.063445 -0.094783 -0.320532 -0.153188 -0.047266 
role -0.055442 0.003610 0.394339 0.000602 -0.016298 -0.326805 0.112431 0.145088 -0.152600 -0.039666 
once 0.272522 0.074078 0.055742 0.095239 0.011128 -0.122895 -0.006715 -0.163583 -0.204216 0.086652 
certain 0.143922 0.188314 -0.034138 -0.104048 0.085460 -0.208648 0.185825 0.137985 -0.179114 -0.180660 
league -0.128674 0.301980 0.283476 0.099786 -0.002301 -0.393535 -0.144704 0.217628 -0.317868 0.476043 
jewish -0.019541 0.530217 0.020605 -0.017528 0.223882 0.024026 -0.223737 -0.023206 -0.070580 -0.427908 
james 0.171985 0.161391 0.337172 0.183467 0.395590 -0.055297 -0.222815 0.106582 0.145124 0.088198 
january 0.002465 0.380265 0.174639 0.423036 0.107969 0.067285 -0.011754 -0.089319 -0.094660 0.078839 
site -0.163219 0.247229 0.278261 0.123969 0.351536 0.168974 -0.073496 0.349963 -0.133455 0.088834 
again 0.243351 0.109079 0.097994 0.232480 0.037280 -0.104019 0.006406 -0.390808 -0.204799 0.119587 
numbers 0.068418 0.421237 -0.260099 -0.112496 0.117155 -0.119918 0.265211 -0.133806 0.071884 0.152344 
art 0.028155 -0.091075 0.435529 -0.154406 0.376346 -0.029835 -0.028216 0.248226 -0.020287 -0.004116 
member -0.179236 0.270889 0.242696 0.122874 -0.028318 -0.314055 -0.056978 0.241989 -0.053439 0.069468 
areas -0.011911 0.371537 -0.019174 -0.190772 -0.242706 0.111254 0.119278 0.147022 -0.410501 -0.035283 
movement -0.081893 0.121645 0.410734 -0.227643 0.043573 -0.273117 0.086832 0.061099 -0.154507 -0.086093 
religious 0.022986 0.404845 0.098507 -0.241353 0.167352 -0.292631 -0.141348 0.132307 -0.188242 -0.475084 
type 0.203753 0.110557 -0.008314 -0.182464 0.129297 0.059010 0.239523 0.178173 -0.016566 0.321450 
march -0.041097 0.328231 0.164045 0.416088 0.129213 0.039374 0.015772 -0.163781 -0.092996 0.123776 
community -0.143803 0.270271 0.196212 -0.078879 0.028301 -0.094558 -0.075065 0.217674 -0.215542 -0.174474 
story 0.342910 -0.081015 0.214370 0.221807 0.454150 0.078300 -0.190439 -0.072465 -0.044795 -0.043962 
played 0.035344 -0.102404 0.266793 -0.027741 0.190935 -0.400705 -0.002936 0.029913 -0.202688 0.353416 
production 0.139454 0.019451 0.220005 0.231133 0.131291 0.441842 0.223070 0.091905 -0.198529 0.041145 
released 0.089138 -0.017049 0.127700 0.401267 0.475985 0.060997 0.129083 -0.295872 -0.211018 0.302141 
center 0.018005 0.235058 0.339496 -0.074813 -0.118113 -0.000182 -0.020821 0.342380 0.002681 0.148827 
rights -0.105242 0.319978 0.135726 0.248944 -0.022333 -0.340552 0.118902 0.221227 -0.077082 -0.352022 
real 0.170637 0.102899 -0.004361 0.048952 0.119067 -0.136004 0.228440 -0.028110 0.019431 0.036127 
related 0.056382 0.303635 0.057267 -0.103095 0.145334 -0.009234 0.068096 0.367281 -0.017986 -0.132911 
foreign -0.293500 0.522816 0.194960 0.147731 0.039481 -0.002995 0.212989 0.006371 -0.156225 -0.092480 
low 0.199784 0.227568 -0.054123 0.043376 -0.073141 0.117905 0.271535 0.135383 -0.405451 0.138281 
ancient 0.180040 0.361982 0.189176 -0.404429 0.361656 0.245355 -0.182624 -0.148591 -0.045373 -0.149754 
terms 0.014881 0.328745 -0.104232 0.008026 0.052725 -0.250674 0.212272 0.109379 0.054074 -0.113523 
view 0.206167 0.168794 0.123708 -0.127934 0.165433 -0.140632 0.030871 0.083572 0.027227 -0.287339 
source 0.031250 0.267287 -0.093066 0.057807 0.320999 0.254782 0.151018 -0.005228 -0.052062 -0.120332 
act 0.144751 0.256187 0.114039 0.334800 -0.077998 -0.337833 0.136415 0.165626 -0.101734 -0.039733 
minister -0.031077 0.560341 0.295465 0.307867 -0.116908 -0.231212 0.068160 0.070882 0.297444 0.062171 
change 0.180926 0.116912 -0.033260 0.001148 -0.015423 -0.152100 0.194113 0.101032 -0.063130 -0.071496 
energy 0.481538 0.327856 0.048013 -0.007455 -0.198274 0.339839 0.485861 0.041652 0.120091 -0.068362 
produced 0.071528 -0.043482 0.175416 -0.039914 0.212452 0.241475 0.103511 0.001575 -0.141684 0.112469 
research 0.114101 0.131472 0.388363 0.107419 0.036525 0.249422 0.189424 0.340104 0.105818 -0.309168 
actor 0.029736 0.328366 0.424148 0.180510 0.406101 -0.452287 -0.208586 0.258664 0.041183 0.510524 
making 0.102120 0.015580 0.105493 0.025897 0.196978 -0.049859 0.138904 0.084365 -0.239166 -0.010939 
civil -0.060728 0.443389 0.334800 0.044648 -0.248776 -0.193816 0.049530 -0.047315 0.027738 -0.193683 
december -0.105408 0.375215 0.218949 0.406871 0.098519 -0.015310 -0.033169 -0.102072 -0.110549 0.173865 
women 0.112378 0.185981 0.023600 0.156160 0.024219 -0.338167 -0.435062 0.424941 -0.287573 -0.161633 
special -0.007244 0.121399 0.065877 0.066295 0.141224 -0.171665 0.201290 0.179491 -0.025223 0.101555 
style 0.047012 -0.081697 0.297954 -0.395232 0.331628 -0.232211 -0.018136 0.027734 -0.216966 0.154893 
william 0.135312 0.314763 0.405676 0.041637 0.222519 -0.037508 -0.112572 -0.059254 0.201453 0.062715 
design 0.007425 -0.054899 0.367137 -0.109411 0.239271 0.103126 0.517380 0.029579 -0.046487 0.049805 
japanese -0.183610 0.250662 0.166704 -0.263958 0.262672 -0.132693 0.072435 -0.021017 -0.136009 0.285768 
available 0.003143 0.192865 -0.082513 0.162437 0.265111 0.181127 0.274748 0.070983 -0.274757 -0.003971 
chinese -0.231719 0.285416 0.034464 -0.327488 0.345095 -0.173233 0.020349 0.059394 -0.235521 0.048058 
forms 0.161389 0.182227 0.049304 -0.348431 0.154112 -0.070004 0.142562 0.222372 -0.196734 -0.147661 
canada -0.315702 0.385023 0.241153 -0.077167 0.033692 0.005233 -0.028256 0.376486 -0.190977 0.190444 
northern -0.026329 0.479927 0.070653 -0.284835 -0.140524 -0.009566 -0.198112 0.047350 -0.286426 0.287053 
died 0.344736 0.276990 0.302034 0.269398 -0.006640 0.110738 -0.423384 -0.175097 -0.026653 -0.103729 
class -0.001175 0.088052 0.229144 -0.144306 -0.097704 -0.321005 0.154710 0.224813 -0.132013 -0.007154 
living 0.102353 0.327145 -0.011588 0.122484 0.041064 0.034689 -0.292541 0.353798 -0.222660 -0.132437 
next 0.163666 0.072043 0.082232 0.186962 0.067106 -0.064028 0.055609 -0.256682 -0.205232 0.190706 
particular 0.044037 0.100996 -0.026942 -0.180159 0.186179 -0.228934 0.259721 0.174909 -0.070111 -0.171801 
program 0.006445 0.127000 0.272365 0.327286 0.147268 0.008259 0.467750 0.098925 -0.014495 -0.010785 
council -0.054081 0.636516 -0.002995 0.208241 -0.041054 -0.286263 -0.089443 0.013855 0.045455 -0.034270 
television -0.042337 -0.037180 0.277252 0.278099 0.240187 -0.015439 0.084294 0.327630 -0.184535 0.223219 
head 0.235679 0.116360 0.083014 0.024725 -0.064653 -0.344337 -0.052539 0.038235 -0.060115 0.278023 
david 0.134879 0.074798 0.301472 0.181013 0.324729 -0.137093 -0.236101 0.025279 0.150648 0.014086 
china -0.323593 0.409328 0.242419 -0.187379 0.057939 0.092288 0.170920 0.015512 -0.221146 0.143800 
middle 0.042965 0.335309 0.100248 -0.421020 0.175031 0.031907 -0.057428 -0.108780 -0.163648 0.033959 
established -0.123564 0.330828 0.334501 -0.011895 0.023266 -0.012987 0.083586 -0.100930 -0.100039 -0.095771 
hand 0.339240 -0.040649 0.075860 -0.125631 0.026685 -0.430066 0.138487 -0.041307 -0.118187 0.184132 
bc 0.299798 0.519757 -0.027756 -0.167196 0.398496 0.378270 -0.062280 -0.483017 -0.065141 0.075698 
far 0.174214 0.151216 0.175793 -0.233396 -0.069324 0.021933 0.068471 -0.092289 -0.245911 -0.071053 
july -0.045878 0.392115 0.231695 0.340931 0.044223 0.035829 -0.044041 -0.043278 -0.035013 0.164577 
function 0.405176 0.341669 -0.184321 0.005783 0.197779 -0.287946 0.438984 0.264433 0.250770 0.029753 
position 0.107483 0.250559 0.138474 -0.036805 -0.099964 -0.361866 0.105358 -0.184910 0.025705 0.023186 
y 0.412540 0.488767 -0.131704 -0.055136 0.277195 -0.216865 0.070955 0.112089 0.394807 0.311742 
built 0.014166 0.099625 0.360031 -0.192797 0.120276 0.276800 0.117363 -0.267802 -0.181392 0.301788 
george 0.074148 0.215293 0.446010 0.221623 0.168750 -0.184025 -0.181710 0.104739 0.094510 0.150099 
band 0.161710 -0.089914 0.231269 0.028617 0.373814 -0.169583 -0.156779 -0.018577 -0.376495 0.377199 
together 0.199465 -0.025370 0.109270 -0.086288 0.106914 -0.173902 -0.029379 0.028559 -0.113775 0.043879 
w 0.124797 0.295507 0.230616 0.014095 0.178716 0.006383 -0.139358 0.231350 0.416944 0.118605 
latin -0.092976 0.329410 0.034247 -0.360055 0.396374 -0.104915 -0.099438 0.024358 0.053050 -0.005364 
thought 0.332080 0.083648 0.233363 -0.211063 0.116253 -0.100217 0.007860 0.040446 -0.059884 -0.327132 
eastern -0.001694 0.535859 0.109494 -0.314437 0.012119 0.012919 -0.180660 -0.115693 -0.267144 0.069821 
charles 0.155571 0.260210 0.547728 0.034442 0.079306 -0.008219 -0.138643 -0.129640 0.234901 0.065646 
parts 0.144412 0.242026 0.022995 -0.290590 0.046085 0.052127 0.084674 -0.074609 -0.209203 0.153254 
instead 0.150841 -0.009049 0.071750 -0.029399 0.104270 -0.256320 0.168603 -0.148962 -0.161086 0.057673 
study 0.176748 0.158904 0.257423 -0.023975 0.189200 0.175165 0.044027 0.346692 -0.004225 -0.317240 
might 0.319314 0.042864 -0.018357 0.071554 0.212895 -0.136673 0.168099 -0.067165 -0.180211 -0.183055 
india -0.109185 0.446681 0.145127 -0.257456 0.053170 0.153160 0.055171 0.023820 -0.255880 0.098884 
code -0.229180 0.441937 -0.214332 0.133216 0.458310 -0.135604 0.441049 -0.091568 0.034169 0.138420 
included -0.092313 0.080174 0.190301 -0.001398 0.241682 -0.029144 -0.015740 -0.081063 -0.161743 -0.042912 
meaning 0.170974 0.206507 -0.086768 -0.359109 0.251016 -0.330785 -0.073766 0.072798 0.068494 0.110257 
trade -0.283863 0.414305 0.210912 -0.058147 -0.073836 0.131898 0.282851 -0.053430 -0.237497 -0.111054 
per 0.182819 0.540855 -0.387286 0.312189 -0.057359 0.214144 0.226600 0.109209 -0.280761 0.239463 
june -0.036157 0.339951 0.129455 0.415330 0.090668 -0.003233 -0.022584 -0.104711 -0.070673 0.220146 
least 0.153393 0.252047 -0.093126 0.058610 0.022877 -0.005486 0.003980 -0.040575 -0.244540 -0.008775 
half 0.152344 0.241025 -0.152089 0.070436 -0.053037 0.095803 -0.131892 -0.090734 -0.320263 0.221513 
model 0.053090 0.077807 0.236771 -0.005168 0.141346 -0.058591 0.376418 -0.008088 0.202909 0.004570 
economy -0.192339 0.565575 0.088750 0.141003 -0.032746 0.265115 0.312737 -0.077087 -0.368174 -0.120063 
prime -0.086813 0.535257 -0.048413 0.035195 0.002705 -0.514497 0.109735 -0.110173 0.222115 0.194005 
traditional -0.005663 0.125505 0.069513 -0.431203 0.144676 -0.155790 -0.036527 0.181749 -0.368152 -0.045944 
always 0.240476 0.118146 -0.065694 -0.053425 0.085043 -0.227005 0.059382 -0.080128 -0.155991 -0.065654 
capital -0.106677 0.532207 0.084191 -0.019952 -0.066924 0.104831 0.043328 -0.006458 -0.082328 0.066548 
range 0.159036 0.189497 0.002600 -0.280613 -0.117184 0.135151 0.266350 0.061128 -0.173562 0.465000 
november -0.050181 0.345244 0.246773 0.439474 0.038316 0.006135 -0.111353 -0.125790 -0.062901 0.136970 
emperor 0.246510 0.589161 0.125614 -0.052501 0.178380 -0.281838 -0.090136 -0.692428 -0.038615 0.045905 
young 0.253698 0.016253 0.240573 0.119636 0.087948 -0.027915 -0.287044 0.228411 -0.159888 -0.076859 
anti -0.033356 0.226595 0.405659 0.008172 -0.031651 -0.125889 0.146800 -0.028579 0.000889 -0.247954 
final 0.105969 0.032502 0.070476 0.180277 0.183120 -0.279575 0.009468 -0.180032 -0.196779 0.223655 
text 0.119417 0.287662 -0.156571 0.077911 0.773885 0.133380 0.057928 -0.151155 0.160824 0.025019 
players -0.130885 -0.004221 0.028016 0.071802 0.137144 -0.559418 0.248466 0.222857 -0.427116 0.459729 
uk -0.147040 0.248822 0.052677 0.352248 0.179899 0.023024 -0.033759 0.278522 -0.235418 0.237071 
april -0.058743 0.320804 0.236392 0.401708 0.058515 0.097535 -0.009627 -0.144208 -0.016512 0.148523 
run 0.020985 0.041801 0.033205 0.287226 0.042099 -0.010369 0.241109 0.016376 -0.281132 0.214904 
september 0.037145 0.338814 0.245274 0.415869 0.009509 0.039278 -0.000718 -0.121154 0.002973 0.144135 
addition 0.044404 0.051442 0.068459 -0.068332 0.048607 -0.140226 0.178440 0.105894 -0.126211 0.075802 
radio -0.009006 0.098576 0.245171 0.220301 0.225893 0.161423 0.159042 0.420571 -0.285307 0.223250 
live 0.248505 0.129257 0.046739 0.177557 0.272532 0.090194 -0.255395 0.250639 -0.489494 0.147876 
august -0.087115 0.316558 0.219965 0.340461 0.085755 0.105809 0.030206 -0.064763 -0.003894 0.173556 
taken 0.097347 0.103842 0.012804 0.119554 -0.035545 -0.105871 0.002002 -0.089660 -0.059181 -0.037674 
note 0.164891 0.310644 -0.166501 -0.000378 0.234197 -0.055240 0.094732 0.086343 0.051486 0.217130 
italian -0.120726 0.361018 0.191465 -0.234011 0.361851 -0.179435 -0.136677 -0.006101 -0.031136 0.206954 
lost 0.046235 0.197630 0.183676 0.150052 0.103451 -0.054015 -0.097925 -0.290382 -0.364222 0.251920 
nature 0.425387 0.127708 0.186904 -0.171091 0.064012 0.004427 0.026100 0.114770 0.059264 -0.297805 
project -0.004084 0.034418 0.242260 0.256445 0.298131 0.263828 0.208886 0.041675 0.078902 -0.031776 
technology -0.098851 0.094158 0.399074 0.026861 0.136798 0.248493 0.391988 0.287292 0.009956 0.043506 
spanish -0.094531 0.380721 0.187676 -0.310522 0.176389 -0.141776 -0.200460 -0.155476 -0.040095 0.259880 
october -0.019405 0.298898 0.279504 0.500786 0.105516 0.041325 0.022388 -0.112173 -0.018255 0.153941 
recent -0.054907 0.217884 0.071775 0.065445 0.108420 0.112547 0.014081 0.136537 -0.323739 -0.198790 
rate 0.325657 0.595600 -0.225759 0.520387 0.023805 0.266385 0.044553 0.149250 -0.259388 -0.011971 
won 0.015270 0.103365 0.218684 0.328905 0.007895 -0.380517 -0.019684 -0.066127 -0.216327 0.357548 
true 0.342610 0.090029 -0.094356 -0.034056 0.211320 -0.314677 0.061220 -0.052453 0.087374 -0.079658 
value 0.325428 0.372815 -0.285894 0.170963 0.165463 0.068280 0.498374 -0.102732 -0.046761 -0.100914 
uses 0.070556 0.114620 -0.005781 -0.225591 0.264252 -0.154899 0.197053 0.228740 0.023097 0.144511 
russian -0.217947 0.325774 0.258457 -0.257071 0.115744 -0.275712 0.085940 -0.190823 -0.047478 0.135234 
est 0.290680 1.335829 0.058274 0.621012 0.082304 0.489874 -0.204912 0.512689 0.005547 0.267814 
wrote 0.179270 0.012193 0.276354 0.045069 0.437576 -0.127191 -0.200214 -0.139886 0.054350 -0.146737 
effect 0.277696 0.061611 0.062660 -0.029235 -0.135730 -0.016216 0.217036 0.053447 -0.110226 -0.116031 
album 0.195402 -0.067469 0.114310 0.211705 0.616963 0.025664 -0.165014 -0.092290 -0.460116 0.265433 
southern 0.034673 0.398863 0.239450 -0.292974 -0.093004 0.053194 -0.212858 0.100077 -0.187248 0.162596 
africa -0.103684 0.535012 0.232623 -0.189241 -0.144472 0.087680 -0.107737 0.153990 -0.201612 0.116967 
whose 0.133534 0.119156 0.200698 -0.172477 0.083480 -0.166140 -0.067135 0.034217 0.029768 -0.073938 
top 0.060875 0.011884 0.055508 0.094170 0.089901 -0.146268 0.084199 0.181123 -0.229859 0.448955 
historical -0.020693 0.272169 0.139811 -0.240864 0.289603 0.180140 -0.059021 0.049337 0.034419 -0.185563 
australia -0.233120 0.358573 0.154263 0.042849 0.087709 -0.045522 -0.025060 0.238189 -0.224531 0.348855 
catholic -0.112913 0.668774 -0.054173 0.001158 0.296886 -0.358492 -0.332905 0.015297 -0.074083 -0.247139 
particularly 0.018373 0.097719 0.230712 -0.212536 0.017462 0.027149 0.082992 0.152664 -0.302068 -0.194474 
self 0.119453 0.022180 0.290315 0.054231 -0.008446 -0.191314 0.141374 0.163744 -0.057476 -0.221144 
structure 0.151849 0.192259 0.053191 -0.260811 0.108767 -0.072899 0.218363 0.266694 0.035003 -0.013258 
record -0.004683 -0.017749 -0.028598 0.338593 0.206583 -0.134677 -0.076948 -0.046468 -0.351839 0.231263 
evidence 0.312190 0.222275 0.025619 -0.023040 0.087975 0.242623 0.012505 -0.054646 -0.072050 -0.418336 
rule -0.057686 0.441637 0.000122 -0.137667 -0.016836 -0.378917 0.143017 -0.343143 -0.014221 -0.079190 
themselves 0.048659 0.155841 0.067229 -0.197028 0.003961 -0.315685 -0.006342 -0.036311 -0.334741 -0.233739 
influence -0.046902 0.079051 0.337936 -0.309430 0.110561 -0.166712 -0.031874 -0.117939 -0.141671 -0.182015 
cases 0.164176 0.251804 -0.173638 0.016585 0.005538 -0.306633 0.138588 0.199889 -0.216796 -0.160741 
subject 0.099466 0.160007 0.063956 0.001109 0.152897 -0.221360 0.064243 0.081975 0.019507 -0.191150 
referred 0.085016 0.132502 0.057536 -0.177741 0.123237 -0.235923 -0.046556 0.072684 -0.033377 0.067861 
continued -0.068793 0.200486 0.247246 0.054469 0.114503 0.036427 0.106172 -0.333816 -0.231698 -0.029849 
nations -0.147611 0.619781 0.212809 -0.121309 -0.123346 -0.142199 -0.022709 0.057338 -0.130115 -0.142452 
below 0.157110 0.288691 -0.271541 -0.147076 0.111561 0.004644 0.002073 0.167262 -0.125265 0.240200 
rock 0.154249 -0.006430 0.178885 -0.069929 0.378998 0.013013 -0.227495 0.284349 -0.315549 0.231665 
japan -0.322545 0.301160 0.226759 -0.127757 0.133590 0.096145 0.122070 -0.038322 -0.225534 0.142753 
com -0.200510 0.376203 0.133923 0.226988 0.476713 0.059367 -0.048988 0.571112 -0.097603 0.193401 
song 0.165999 -0.036181 -0.017039 0.054603 0.521052 -0.161158 -0.291469 -0.047039 -0.297317 0.297447 
throughout 0.015743 0.206275 0.264462 -0.127477 0.060386 0.003284 -0.043871 -0.017946 -0.383504 -0.070749 
names 0.046563 0.274860 -0.117014 -0.324025 0.377621 -0.299565 -0.243853 0.003060 -0.024696 0.134924 
female 0.338575 0.476021 -0.215172 0.347195 0.237146 -0.137252 -0.490665 0.356992 -0.259065 0.140007 
title 0.006953 0.046783 0.123990 0.093405 0.435434 -0.344174 -0.131065 -0.224129 -0.001316 0.229309 
therefore 0.332080 0.283160 -0.162797 0.018386 -0.010876 -0.184210 0.215285 -0.026846 0.007176 -0.126899 
our 0.564136 0.165304 -0.010250 0.185931 0.172259 -0.042262 -0.115682 0.021893 0.175289 -0.313964 
office -0.092395 0.282175 0.176149 0.435868 0.045232 -0.175517 0.112097 -0.030146 -0.032112 -0.046726 
star 0.388504 -0.088359 0.254419 -0.042572 0.248099 0.127812 -0.049733 -0.019531 0.065855 0.423105 
paul 0.140613 0.180032 0.269835 0.175515 0.263177 -0.130212 -0.104389 -0.016647 0.165614 -0.045017 
too 0.336341 0.013235 0.074934 0.088026 0.072906 -0.097834 0.176524 -0.142193 -0.339102 -0.048937 
cities -0.175969 0.288737 0.087968 -0.111547 -0.033053 0.204391 -0.091755 0.246363 -0.398301 0.176151 
february -0.019675 0.293662 0.179457 0.464287 0.122456 0.058737 -0.063899 -0.027887 0.029383 0.135084 
independent -0.145673 0.203544 0.184221 0.002901 0.126081 -0.133671 0.154835 0.021777 -0.056828 -0.094704 
author 0.073703 0.145094 0.232273 -0.035166 0.476812 -0.271974 -0.199337 0.071891 0.198991 -0.132641 
problem 0.272022 0.126476 -0.026817 0.224197 0.154309 0.038847 0.399431 -0.065674 0.115003 -0.240184 
species 0.405646 0.346260 -0.137308 -0.255269 0.020132 0.269760 -0.223597 0.553889 -0.301659 0.018896 
education -0.079887 0.291351 0.315593 0.120660 -0.020878 0.012677 -0.065414 0.457842 -0.189792 -0.355923 
done 0.297756 0.029369 0.014872 0.152871 0.087548 -0.095542 0.256735 -0.040307 -0.137579 -0.066122 
philosophy 0.131248 0.278804 0.383824 -0.207515 0.305353 -0.054358 0.096720 0.086764 0.259289 -0.472934 
come 0.217598 0.086415 -0.018383 -0.126650 0.098724 -0.069250 -0.065101 -0.066575 -0.170435 -0.029701 
higher 0.174953 0.229755 -0.158832 0.094813 -0.099094 0.050851 0.155422 0.207746 -0.291967 -0.020963 
originally -0.004150 0.047812 0.150133 -0.211814 0.288656 0.017475 0.090177 -0.102520 -0.099886 0.141773 
market -0.185391 0.198178 0.049616 0.183913 0.126555 0.090602 0.507230 0.048549 -0.526123 -0.040334 
town 0.016416 0.196346 0.277112 -0.080968 -0.062854 0.173643 -0.281865 0.034163 -0.256996 0.173936 
my 0.542178 0.053304 -0.018769 0.433648 0.400883 -0.250994 -0.295862 -0.005163 -0.051141 0.097221 
season 0.160912 0.183323 0.002474 0.400733 -0.094277 -0.158415 -0.167366 -0.036797 -0.570781 0.607408 
love 0.429272 0.032374 0.038882 0.231019 0.349696 -0.215559 -0.316554 0.072766 -0.099920 -0.004250 
strong 0.070903 0.211899 0.259208 -0.203857 -0.127616 -0.160935 0.024371 0.031754 -0.265117 -0.127589 
israel 0.165154 0.720955 0.063995 0.127706 -0.077260 0.111684 -0.089201 -0.176127 0.102730 -0.268929 
irish -0.207031 0.307817 0.099614 -0.093428 0.122728 -0.268437 -0.309961 0.125157 -0.177798 0.194272 
writer 0.092358 0.080409 0.343044 0.025805 0.426292 -0.304005 -0.182070 0.084284 0.227173 0.098647 
films 0.099219 -0.094757 0.505636 0.121857 0.371848 0.026763 0.023008 0.108832 -0.316791 0.025993 
elements 0.248685 0.049879 0.182818 -0.451060 0.213383 -0.030134 0.127452 0.214150 0.104388 0.067158 
robert 0.158371 0.116467 0.440321 0.097927 0.342588 -0.010597 -0.007465 0.090588 0.263526 0.017806 
whether 0.243319 0.128871 -0.022841 0.138715 0.168146 -0.259545 0.239559 0.064641 -0.034202 -0.336195 
despite 0.014381 0.128453 0.228317 0.096134 -0.035446 -0.154719 0.052661 -0.143214 -0.407277 -0.032437 
eventually 0.130220 0.053999 0.248318 -0.011730 -0.026213 0.052584 0.045822 -0.330686 -0.187396 -0.006406 
here 0.230650 0.092432 -0.086723 -0.017400 0.306626 0.040818 -0.103665 0.086771 -0.054801 0.034815 
football -0.139190 0.198627 0.291727 0.073073 0.123774 -0.458818 -0.160775 0.391987 -0.234763 0.479987 
action 0.169659 0.036672 0.328680 0.163279 -0.060956 -0.360517 0.408707 0.184305 0.016508 0.002755 
internet -0.262863 0.308263 -0.085229 0.318120 0.468526 -0.038438 0.328628 0.249951 -0.250485 0.091758 
individual 0.191513 0.053994 0.101464 -0.133903 0.000329 -0.295614 0.276356 0.349598 -0.201311 -0.300434 
sound 0.188715 -0.130353 0.058308 -0.187486 0.404710 -0.107761 0.182613 0.090693 -0.239866 0.249790 
network -0.178928 0.083040 0.181653 0.165303 0.187907 0.110929 0.396847 0.313836 -0.184826 0.214625 
described 0.306114 0.033763 0.171815 -0.165984 0.120165 -0.090237 -0.038551 0.057970 0.099861 -0.089524 
practice 0.059395 0.181297 -0.041186 -0.050546 0.127952 -0.282769 0.045782 -0.015155 -0.136345 -0.307215 
characters 0.228852 -0.242664 0.195597 -0.109506 0.485357 -0.328703 -0.016997 0.058725 -0.095284 0.081046 
re 0.083663 0.154666 0.161028 0.236718 0.283989 -0.071040 0.039356 -0.207547 -0.000011 0.076367 
royal -0.016390 0.258823 0.570561 -0.106552 0.029488 -0.031161 -0.065927 -0.101880 0.077522 0.055653 
la 0.100087 0.342751 0.314106 -0.225533 0.212566 0.088412 -0.264636 0.070402 0.164693 0.282103 
events 0.024349 0.136448 0.102071 0.046429 0.149198 0.029738 -0.027061 0.006811 -0.228702 -0.118538 
formed 0.035771 0.197136 0.245641 -0.145861 -0.065846 -0.111728 -0.011471 -0.003764 -0.089656 0.058160 
commonly 0.081359 0.183666 -0.125956 -0.360934 0.142430 -0.046941 0.086240 0.136600 -0.120951 0.090013 
base 0.073525 0.156127 0.161475 -0.047467 -0.114715 0.092984 0.297263 0.118978 -0.037266 0.260253 
received -0.004762 0.050744 0.363667 0.268771 0.045119 -0.044874 -0.035266 -0.010328 -0.205160 -0.029112 
african -0.127003 0.448531 0.251038 -0.184331 -0.068718 -0.122614 -0.173589 0.419095 -0.186060 0.132328 
problems 0.189883 0.093235 0.114805 0.232676 0.075881 0.111592 0.374288 0.106392 -0.078579 -0.317204 
food 0.225816 0.264618 -0.070157 0.066710 -0.090673 0.297839 -0.032906 0.356722 -0.388061 -0.118662 
jews 0.144911 0.621162 -0.083776 -0.078548 0.065329 -0.054690 -0.248382 -0.248833 -0.200000 -0.417380 
able 0.287050 -0.036681 0.137954 0.103319 -0.090417 -0.060230 0.204745 -0.214836 -0.210899 -0.036993 
male 0.395013 0.600118 -0.313771 0.281428 0.102031 -0.181292 -0.466656 0.371670 -0.055153 0.113978 
typically 0.189349 0.096596 -0.086713 -0.135163 0.064023 -0.163008 0.325177 0.300216 -0.362564 0.123249 
mass 0.343643 0.257472 0.055718 -0.120910 -0.070641 0.198828 0.167128 -0.072611 0.066431 0.010510 
complex 0.208594 0.177571 0.072397 -0.244873 0.150580 -0.035377 0.330777 0.174613 -0.005628 0.032628 
lower 0.269667 0.349810 -0.229570 -0.067387 -0.209062 -0.000369 0.113080 0.035347 -0.342561 0.206371 
includes 0.025119 0.235671 -0.004347 -0.019590 0.191096 -0.009239 0.032637 0.346536 -0.071216 0.073434 
outside 0.074442 0.178412 0.163761 -0.071582 -0.116344 -0.061508 0.004561 0.104373 -0.220403 -0.040876 
legal -0.207659 0.303796 -0.054944 0.230478 -0.029246 -0.354010 0.210096 0.157577 -0.099354 -0.238342 
complete 0.126487 0.157984 -0.026777 0.176712 0.355455 0.053501 0.142478 -0.018302 -0.008041 0.014227 
significant 0.035588 0.185957 0.135357 -0.000530 -0.022505 0.095109 0.176892 -0.028864 -0.283984 -0.159731 
parliament -0.143495 0.528060 -0.133241 0.225891 -0.010740 -0.621856 0.136051 -0.262287 -0.139822 0.058362 
actually 0.375707 0.049410 0.011581 -0.052274 0.106176 -0.121431 0.040865 0.008416 -0.168076 -0.051480 
business -0.181434 0.102350 0.247481 0.215678 0.082112 -0.059870 0.241819 0.221768 -0.242790 -0.081631 
fiction 0.195663 -0.089751 0.387134 -0.076197 0.477044 0.033664 -0.034873 0.257213 -0.053918 -0.099192 
physical 0.405515 0.164423 0.185164 -0.194253 0.013795 -0.068305 0.254907 0.366128 -0.079505 -0.220312 
followed 0.061515 0.177113 0.099998 0.037773 0.136849 -0.031355 0.026873 -0.183346 -0.144689 0.107880 
deaths 0.009757 0.415870 0.205395 0.191831 0.269790 0.142085 -0.463537 0.249772 0.096308 -0.077128 
key 0.011479 0.140530 0.067726 -0.032318 0.256196 -0.239455 0.361847 0.060036 -0.119240 0.001253 
leader -0.055607 0.243560 0.338097 0.133802 -0.045737 -0.422671 -0.035513 -0.162543 0.042777 -0.004290 
widely -0.056836 0.159154 0.066904 -0.139558 0.244868 0.016876 0.111182 0.061099 -0.187556 -0.129503 
page 0.000430 0.180394 -0.175655 0.288355 0.683305 0.140750 -0.095512 0.332746 -0.009087 -0.194470 
basic 0.037764 0.112528 0.004291 -0.073208 0.231491 -0.128735 0.365346 0.149430 0.003663 0.006182 
types 0.149078 0.059038 -0.030959 -0.252382 0.150588 -0.084576 0.413246 0.426571 -0.253773 0.107644 
henry 0.049494 0.272152 0.489692 0.143629 0.178290 -0.216202 -0.187080 -0.066136 0.270391 0.085462 
elected -0.029499 0.609792 -0.010570 0.314540 -0.187913 -0.558202 -0.113286 0.055636 -0.075483 0.174198 
beginning 0.010628 0.078243 0.155140 -0.036892 0.195874 0.032346 0.015349 -0.284850 -0.195413 0.005147 
fire 0.412244 0.045019 0.285607 -0.018687 -0.134610 0.135439 0.063622 -0.170833 -0.105223 0.197532 
building 0.135448 0.089261 0.457339 -0.158376 0.014432 0.243052 0.116444 0.079368 -0.150973 0.082886 
independence -0.268360 0.624497 0.240819 0.036207 0.067908 -0.180963 0.096905 -0.399848 -0.158153 0.032122 
went 0.147231 -0.005803 0.394957 0.232679 0.037175 -0.019832 -0.047248 -0.245104 -0.240514 0.084927 
movie 0.223499 -0.117310 0.341808 0.236947 0.370314 -0.023374 0.006375 0.143621 -0.162247 0.226114 
aircraft 0.027490 0.196857 0.429558 0.071049 -0.167463 0.068294 0.512018 -0.083980 0.062090 0.522351 
ever 0.045845 0.024368 0.054719 0.221926 0.188891 -0.029977 0.033499 -0.067344 -0.240581 0.086810 
canadian -0.305298 0.329419 0.159519 -0.056826 0.025156 -0.296143 -0.049130 0.419201 -0.024854 0.230165 
material 0.293969 0.058178 0.052090 -0.142601 0.226543 0.259405 0.178839 0.135530 -0.102930 -0.098755 
births -0.087743 0.497857 0.272104 0.048370 0.595067 -0.002779 -0.457639 0.498141 0.113940 0.205016 
video 0.123996 -0.177145 0.189703 0.276918 0.431325 -0.020978 0.212854 0.197475 -0.134530 0.282670 
news -0.165977 0.230818 0.216865 0.364131 0.324546 0.021638 -0.005346 0.339956 -0.198635 -0.068154 
future 0.126284 0.039478 0.197980 0.231110 0.228953 0.072793 0.086198 -0.062503 -0.003169 -0.140156 
scientific 0.219410 0.181122 0.325477 -0.011347 0.214727 0.223794 0.241755 0.124063 0.191837 -0.430104 
simply 0.273524 0.020597 -0.011727 -0.012055 0.172103 -0.262580 0.147525 -0.059292 -0.042353 -0.031955 
go 0.237775 0.011529 -0.010022 0.197471 0.078228 -0.248030 -0.045292 -0.035983 -0.330445 0.040812 
defined 0.221278 0.439175 -0.174788 -0.174351 0.059411 -0.165503 0.357920 0.128142 0.146925 0.016177 
laws 0.135715 0.404553 0.051841 0.012459 -0.050936 -0.187806 0.252858 0.061945 0.097184 -0.374211 
get 0.379951 -0.061543 -0.027193 0.370864 0.077469 -0.202340 0.082366 0.042262 -0.310961 0.090396 
close 0.213915 0.082459 0.213063 -0.088681 -0.086706 -0.056556 0.058520 -0.064173 -0.190254 0.068104 
industry -0.117042 0.229332 0.318377 0.164158 0.067209 0.305914 0.283413 0.162028 -0.290439 0.001226 
specific 0.124387 0.189735 -0.018907 -0.051981 0.194222 -0.167007 0.346248 0.391347 -0.114017 -0.214280 
examples 0.028757 -0.001818 0.023090 -0.263821 0.163278 -0.169207 0.039621 0.218431 -0.098813 -0.025760 
believe 0.275720 0.162004 -0.016344 -0.004232 0.055239 -0.245904 -0.006940 -0.006672 -0.211100 -0.410856 
services -0.183322 0.434254 0.010068 0.330099 0.046970 0.022731 0.292362 0.245763 -0.338009 -0.035468 
idea 0.224419 0.028131 0.291997 -0.110948 0.224658 -0.151988 0.199444 -0.049616 0.086847 -0.243573 
method 0.335442 0.170196 0.048716 -0.048633 0.310418 0.035003 0.457240 0.114754 0.038028 -0.098927 
introduced -0.114441 0.104144 0.227128 -0.029430 0.187071 -0.062255 0.282471 -0.190782 -0.078917 0.125050 
points 0.296415 0.088619 -0.039190 -0.062867 -0.051446 -0.192339 0.289314 0.148512 0.080520 0.252167 
return 0.171665 0.150574 0.170152 0.264463 0.018243 -0.088253 0.055072 -0.283129 -0.116349 0.019003 
cause 0.526381 0.143706 0.000673 0.056298 -0.150298 -0.008440 0.089134 0.021947 -0.170700 -0.241407 
indian -0.107589 0.361787 0.248646 -0.288750 0.059272 0.021413 -0.105187 0.134522 -0.119413 0.159091 
britain -0.149631 0.240830 0.288092 -0.126957 0.132915 0.033563 -0.049495 -0.168324 -0.126752 0.094731 
features 0.019678 -0.003627 0.024856 -0.266066 0.358870 0.105877 0.179553 0.106335 -0.224262 0.225124 
majority -0.107039 0.447278 -0.172541 0.016013 -0.121747 -0.278963 0.031175 0.039632 -0.365254 -0.076795 
size 0.198337 0.385127 -0.208496 -0.110646 0.001484 0.222116 0.234757 0.104342 -0.201459 0.304442 
post -0.054921 0.163016 0.344699 0.123518 0.134387 0.019441 0.064914 0.007433 -0.007036 -0.065556 
lead 0.180768 -0.006721 0.156431 0.048900 0.011341 0.018560 -0.017787 0.097485 -0.193172 0.001340 
organization -0.170532 0.371993 0.307590 0.042232 -0.033916 -0.118237 0.274752 0.395357 -0.020746 -0.123295 
cannot 0.400227 0.137212 -0.203413 0.089449 0.025794 -0.228952 0.325751 0.034272 -0.110736 -0.149020 
designed -0.014542 -0.077978 0.255531 -0.084157 0.108579 0.119123 0.432870 -0.022855 -0.093722 0.189294 
ireland -0.374929 0.448198 0.062184 -0.012600 0.104364 -0.170845 -0.158538 0.117005 -0.358748 0.135846 
cross 0.081711 0.125540 0.140964 -0.106509 -0.048354 -0.156572 0.004555 0.146221 -0.020467 0.289503 
classical 0.051024 0.051413 0.351037 -0.432271 0.371185 -0.067427 0.052404 0.117615 -0.021589 -0.155065 
personal -0.006852 0.054476 0.182008 0.072460 0.198102 -0.270367 -0.033351 0.034813 -0.225876 -0.207080 
writing 0.079091 -0.014179 0.133451 -0.039754 0.559553 -0.103899 0.031582 -0.149743 -0.067217 -0.157272 
concept 0.080661 -0.048390 0.201651 -0.189381 0.380228 -0.160467 0.230045 0.014848 0.024927 -0.170647 
associated 0.196111 0.213049 0.090652 -0.222127 0.132291 -0.032052 -0.019543 0.204929 -0.099386 -0.081441 
required 0.113742 0.201525 -0.054335 0.189911 -0.039675 -0.128447 0.352868 0.044036 -0.183080 -0.048923 
soon 0.120192 0.037666 0.423889 0.098334 -0.007846 -0.032120 0.054949 -0.307167 -0.259840 -0.024838 
changes 0.165286 0.126636 -0.009126 -0.077126 0.075722 0.039805 0.306858 -0.027754 -0.221435 -0.052645 
california 0.113116 0.108204 0.442024 0.129770 0.023418 0.181998 -0.178103 0.362015 -0.121565 0.126412 
located -0.007542 0.341786 0.241425 -0.171380 -0.055686 0.183263 -0.114004 0.321242 -0.131279 0.241550 
sense 0.282250 0.080675 0.085453 -0.259584 0.184387 -0.394684 0.091010 0.218164 0.023295 -0.279165 
believed 0.340148 0.103598 0.146796 -0.095387 -0.053685 0.069290 -0.098882 -0.255345 -0.076781 -0.262489 
away 0.382313 0.039973 0.150624 0.019075 -0.050021 -0.078832 -0.066083 -0.200545 -0.299353 0.107424 
started -0.121884 0.083083 0.263479 0.134493 0.175668 0.117883 0.100058 -0.212967 -0.276895 0.028954 
co 0.063989 0.082527 0.209940 0.168387 0.186330 0.018728 0.011603 0.213165 0.149710 0.083351 
religion 0.070680 0.492581 0.076126 -0.219190 0.128995 -0.167330 -0.208250 0.125951 0.003968 -0.389251 
mother 0.387186 0.218154 0.229975 0.085891 0.040979 -0.247038 -0.522553 0.075948 -0.210561 0.002359 
county 0.145500 0.489864 0.238916 0.119893 -0.132803 -0.057960 -0.321685 0.289828 -0.221718 0.198173 
rules -0.091147 0.125003 -0.121973 0.065783 0.196918 -0.574220 0.234644 0.202871 -0.139754 0.108754 
studies 0.135782 0.272933 0.284690 -0.047174 0.206961 0.230273 -0.084761 0.355965 0.013023 -0.388764 
yet 0.188046 0.111033 0.043843 0.050744 0.124152 -0.086067 0.089341 -0.177400 -0.183307 -0.099806 
find 0.282918 0.069781 0.050226 0.078639 0.148862 -0.051962 0.042515 -0.005974 -0.132706 -0.132551 
knowledge 0.240619 0.212225 0.159588 0.027915 0.204992 -0.042274 0.188460 0.049194 0.039749 -0.501530 
put 0.128730 0.028518 0.156537 0.158935 0.034362 -0.103757 0.057938 -0.173533 -0.092861 -0.044134 
founded -0.173075 0.184812 0.465599 0.042702 0.115541 0.050040 -0.115720 -0.003147 -0.058351 -0.033281 
policy -0.198754 0.380328 0.286121 0.243609 -0.117480 -0.038664 0.347889 -0.024976 -0.085986 -0.245356 
currently -0.062085 0.201267 0.119462 0.131450 0.003307 0.048460 0.129768 0.234449 -0.206895 0.125990 
provide 0.061294 0.105881 0.059291 -0.000691 0.007103 -0.019468 0.338818 0.160846 -0.344340 -0.074931 
working 0.011363 -0.033016 0.404835 0.175728 0.079544 0.036774 0.108851 0.067901 -0.125656 -0.158629 
media -0.147311 0.047131 0.203823 0.192136 0.222355 -0.158309 0.120816 0.302559 -0.205071 -0.160835 
election -0.085510 0.414517 0.083190 0.495384 -0.047327 -0.478618 0.034413 -0.080414 -0.221749 0.133292 
australian -0.197665 0.348353 0.169774 0.135350 0.083799 -0.294701 -0.092728 0.381160 -0.132745 0.411055 
me 0.553574 0.059109 -0.107390 0.331114 0.412722 -0.307023 -0.164213 -0.053958 0.023305 0.199980 
thomas 0.100348 0.147478 0.347163 0.090514 0.250138 -0.042215 -0.131343 0.072313 0.197688 -0.032325 
allowed 0.127652 0.159872 0.125367 0.094409 -0.053806 -0.135857 0.216349 -0.152100 -0.229256 -0.099289 
russia -0.194519 0.470393 0.317572 -0.011696 0.091455 0.056111 0.036741 -0.164273 -0.070100 0.167146 
earlier 0.081299 0.071757 0.108329 -0.011507 0.195393 0.088439 0.007934 -0.308108 -0.142040 0.004021 
greater 0.135458 0.268313 -0.046501 -0.017834 -0.083521 0.068389 0.178958 0.058344 -0.185593 -0.063245 
limited -0.132472 0.222160 0.121922 -0.003391 -0.060579 0.018758 0.310418 0.108428 -0.197942 -0.001195 
object 0.472218 0.168973 0.001105 -0.222935 0.210659 -0.394702 0.485043 0.122676 0.071684 0.038896 
brought 0.066148 0.143102 0.264156 0.032199 0.039777 0.016323 -0.078980 -0.157210 -0.235812 -0.163662 
online -0.220232 0.132511 0.057850 0.291387 0.612550 0.021260 0.194386 0.396136 -0.167544 -0.086922 
association -0.163779 0.201043 0.310536 0.055883 0.033189 -0.153296 0.076049 0.512875 0.001155 0.064476 
lord 0.200669 0.209027 0.018549 0.056747 0.095584 -0.350029 -0.199160 -0.220968 0.034144 0.119401 
mostly -0.010417 0.232535 0.050312 -0.104187 0.033716 0.061589 -0.035786 0.041401 -0.272458 -0.041434 
blue 0.233366 0.039430 0.148018 -0.237095 0.127933 -0.205810 -0.103452 0.261746 -0.047152 0.405973 
constitution -0.137817 0.772253 -0.090912 0.163811 0.052523 -0.408010 0.168785 -0.158704 0.237181 -0.036737 
across 0.110694 0.085886 0.169720 -0.194780 -0.115853 0.135800 0.104550 0.096123 -0.297558 0.142234 
added 0.116028 0.074947 -0.109038 0.037503 0.195718 -0.039949 0.132462 -0.266025 -0.143408 0.213496 
interest 0.063043 0.029446 0.317860 0.081082 0.028342 0.064071 0.115327 0.127731 -0.326707 -0.287662 
things 0.368972 -0.037237 -0.046127 0.026142 0.268924 -0.200574 -0.019282 0.099451 -0.096884 -0.148346 
relations -0.185107 0.584107 0.270621 -0.019334 -0.025106 -0.044085 0.257412 0.030130 0.015152 -0.155733 
speed 0.431011 0.091179 0.037266 0.120376 -0.004458 0.145816 0.529831 -0.001415 -0.131769 0.462829 
federal -0.036054 0.551769 0.055555 0.387525 -0.228263 -0.218992 0.153835 0.420275 0.048808 0.022513 
singer -0.002694 0.188621 0.328062 -0.029925 0.367940 -0.402837 -0.290417 0.222926 0.012480 0.368985 
effects 0.346212 0.025664 0.154403 0.113453 -0.046856 0.191273 0.264537 0.299021 -0.183754 -0.217353 
growth 0.094609 0.608810 -0.007186 0.221586 -0.041051 0.439613 0.129842 0.008656 -0.384530 -0.152130 
sources 0.137104 0.351027 0.055651 -0.041770 0.292506 0.358399 -0.054678 0.063599 -0.060551 -0.212356 
your 0.488554 0.076221 -0.154925 0.488437 0.310419 -0.195467 -0.063803 0.111402 -0.200871 0.072714 
remains 0.080345 0.186378 0.017850 -0.091973 -0.008849 0.092917 -0.044051 -0.058130 -0.268953 -0.076539 
z 0.173345 0.322092 0.030605 -0.036970 0.264026 -0.368171 0.313078 0.021550 0.323548 0.358794 
probably 0.179803 0.127008 0.132577 -0.231464 0.208887 0.026394 -0.174005 -0.236701 -0.243421 -0.058392 
gave 0.135020 0.119172 0.310400 0.132262 0.093805 -0.075186 -0.062968 -0.206112 -0.100747 -0.144580 
simple 0.340889 0.030508 -0.047720 -0.145900 0.353357 -0.118635 0.385490 0.076321 -0.050516 0.071088 
attack 0.306806 0.086084 0.379438 0.231134 -0.233105 -0.009405 0.224182 -0.194077 0.016113 0.062720 
longer 0.201433 0.156687 -0.106046 0.063192 0.014040 -0.086278 0.089006 -0.067676 -0.309624 0.039519 
reference 0.079203 0.125971 0.030850 -0.048998 0.362245 0.011862 0.096133 0.160373 0.213021 0.001299 
saint 0.101421 0.461140 0.260048 -0.102986 0.187163 -0.005374 -0.443119 0.020320 0.069904 0.020354 
success -0.008136 -0.084492 0.333824 0.185033 0.193546 -0.016093 0.049975 -0.039214 -0.371163 0.038404 
killed 0.366613 0.225688 0.265534 0.308809 -0.286127 -0.097294 -0.198310 -0.268168 -0.077742 0.104197 
past 0.060401 0.118391 0.063818 -0.030150 0.061702 -0.036279 -0.020049 0.062829 -0.277708 -0.122110 
career 0.105517 -0.047599 0.605556 0.236382 0.139250 -0.170714 -0.140547 -0.000472 -0.215576 0.087101 
need 0.277903 0.097321 -0.018125 0.193472 0.086898 -0.116309 0.390513 0.041484 -0.117547 -0.135374 
park 0.105029 0.225563 0.431691 0.050384 -0.041554 0.241696 -0.193512 0.340334 -0.089487 0.263673 
definition 0.083227 0.405529 -0.318873 -0.125210 0.336490 -0.129663 0.136664 0.259201 0.160093 -0.106833 
say 0.371694 0.157638 -0.078404 0.131544 0.181084 -0.282611 -0.005216 0.014897 -0.023994 -0.133656 
etc 0.029185 0.109986 -0.139592 -0.085161 0.248094 -0.169186 0.171619 0.215999 -0.037078 0.098109 
give 0.328953 0.024104 0.013063 0.132828 -0.017672 -0.247283 0.105426 -0.080813 -0.133723 -0.060098 
peace 0.122447 0.370521 0.332589 0.077413 -0.181353 -0.149949 -0.022083 -0.190545 0.081333 -0.126639 
chief 0.110276 0.334633 0.291266 0.120333 -0.176720 -0.335457 -0.036519 -0.065826 0.260897 0.089896 
stories 0.343851 -0.060096 0.263555 -0.041267 0.578295 0.088378 -0.173580 -0.047038 -0.154857 -0.089474 
security -0.028970 0.343369 0.225825 0.391077 -0.060464 -0.035310 0.429235 0.046356 0.086846 -0.138105 
wide -0.014032 0.107852 0.148787 -0.174789 0.080042 0.061594 0.136274 0.220588 -0.272153 0.024906 
ball 0.373191 -0.030325 0.069006 -0.059571 -0.170381 -0.537504 0.268944 0.213840 -0.281428 0.599918 
saw 0.037524 0.069019 0.330250 0.116019 0.039995 0.034107 0.072631 -0.205483 -0.218488 0.015166 
machine 0.085830 0.051763 0.274422 0.046916 0.315268 -0.097643 0.649090 -0.188166 0.179452 0.203911 
better 0.192647 -0.015903 0.062368 0.034258 0.109837 -0.028815 0.126026 0.031606 -0.228692 -0.062640 
cell 0.593699 0.229573 -0.009299 0.077797 0.033320 0.065035 0.278924 0.655090 -0.072297 0.121244 
leading -0.021389 0.107911 0.374882 0.084656 -0.040527 -0.044884 0.040402 0.031149 -0.173304 -0.032156 
becomes 0.356864 0.141326 -0.041262 -0.005948 -0.122102 -0.221229 -0.012504 -0.020188 0.010726 0.139120 
spain -0.194389 0.452534 0.320159 -0.175019 0.020525 0.058967 -0.160550 -0.306520 -0.136527 0.219405 
larger 0.107369 0.254216 -0.048682 -0.214505 -0.041356 0.066087 0.169206 -0.031758 -0.381380 0.093533 
products -0.013388 0.382659 -0.021658 0.071187 0.200293 0.428598 0.361949 0.361598 -0.265327 0.069249 
parties -0.285005 0.416381 0.049994 -0.037168 -0.029017 -0.652693 0.283635 0.005125 -0.318625 -0.077446 
night 0.371389 0.023924 0.094248 0.254898 0.182806 0.117920 -0.341345 0.009234 -0.266456 0.277601 
remained -0.005014 0.235529 0.249105 -0.024318 0.008346 -0.024527 -0.046120 -0.320334 -0.166661 -0.037485 
prize 0.013977 0.156060 0.451185 0.148407 0.103813 -0.321506 -0.124637 0.626991 0.288388 0.094196 
months 0.237845 0.339624 0.020297 0.433972 -0.062860 0.120648 -0.088767 -0.272923 -0.365397 0.081519 
website -0.205073 0.397724 0.137074 0.263933 0.552624 0.053933 -0.035449 0.532313 -0.091589 0.062535 
big 0.311325 0.010052 0.079756 0.111939 0.178553 0.103401 -0.024400 0.115022 -0.148908 0.347403 
cultural -0.085138 0.274422 0.306305 -0.437869 0.084935 0.014593 -0.006171 0.254677 -0.173496 -0.322279 
money 0.045750 0.154787 -0.024139 0.419573 -0.017378 -0.033800 0.322823 0.058387 -0.429249 -0.154159 
help 0.165633 0.027784 0.213699 0.254295 -0.009083 -0.092825 0.118331 0.113766 -0.245134 -0.170501 
territory 0.074415 0.683972 0.084110 -0.151608 -0.329212 -0.113053 0.050175 -0.176568 -0.135683 0.243329 
private -0.026002 0.188444 0.273685 0.225951 -0.023365 -0.092695 0.212418 0.123647 -0.325358 -0.088168 
moved 0.162857 0.049811 0.441468 0.057235 -0.101972 0.030021 -0.119844 -0.108887 -0.255929 0.041854 
letter -0.070488 0.222774 -0.175266 0.036883 0.424516 -0.418790 0.065999 -0.276726 0.155973 0.157239 
wife 0.375732 0.224581 0.385368 0.255395 0.108790 -0.229787 -0.478826 -0.117760 -0.188542 0.006591 
politics -0.359423 0.374897 0.266871 0.047170 0.057315 -0.305707 0.022545 0.162980 0.095062 -0.183780 
lines 0.040716 0.256236 0.022594 -0.100734 0.142453 0.018050 0.311410 -0.006094 -0.165631 0.476656 
largely -0.049596 0.187501 0.192611 -0.189307 0.000833 0.009048 0.130033 -0.113952 -0.202814 -0.087742 
contains 0.127578 0.121471 -0.154734 -0.114450 0.361969 0.208226 -0.081393 0.265722 -0.003595 0.068072 
companies -0.311285 0.074402 0.163392 0.193196 0.121817 0.120549 0.455227 0.161785 -0.488161 0.102984 
lake 0.268372 0.358703 0.294699 -0.222686 -0.067435 0.282831 -0.266794 0.336429 -0.192011 0.349247 
perhaps 0.108006 0.015055 0.173229 -0.251397 0.208561 -0.058422 0.023066 -0.096493 -0.186678 -0.101881 
green 0.159261 0.115789 0.232865 -0.159500 0.005173 -0.076060 -0.079276 0.319936 -0.131230 0.429192 
already 0.065175 0.066447 0.115886 0.061439 0.060680 -0.066137 0.109522 -0.297444 -0.164747 -0.033328 
dead 0.361470 0.012337 0.104880 0.083567 0.032139 0.042358 -0.334981 0.032930 -0.234156 0.033450 
iii 0.095403 0.222280 0.184796 0.025613 0.213033 -0.183858 -0.014723 -0.412546 0.257799 0.109003 
library -0.140586 0.321499 0.313097 0.163998 0.430072 0.299890 0.035467 0.200964 0.051347 -0.166735 
separate -0.027098 0.232076 -0.094600 -0.206284 0.122288 -0.231227 0.076360 -0.006198 -0.178890 0.070387 
refer 0.026929 0.205274 0.058431 -0.343520 0.160348 -0.335944 -0.106627 0.355365 -0.055285 -0.051311 
makes 0.304326 0.058376 -0.057596 -0.095677 0.066884 -0.055653 0.190539 0.064970 -0.099302 0.036955 
appeared 0.187065 -0.095196 0.310838 0.156002 0.319547 0.018208 -0.110235 -0.111945 -0.123280 0.071008 
dutch -0.215441 0.399352 0.139146 -0.230053 0.297938 -0.154913 -0.052349 -0.057893 -0.172646 0.352709 
holy 0.324341 0.423564 -0.042996 -0.168390 0.278734 -0.257312 -0.362627 -0.209625 -0.000270 -0.036723 
era -0.043384 0.085157 0.318479 -0.166195 0.181904 0.047797 -0.016355 -0.217397 -0.292456 0.001029 
novel 0.292856 -0.124898 0.501863 0.009695 0.510272 -0.087901 -0.111827 -0.027853 0.086308 0.029604 
successful 0.008513 -0.065014 0.429573 0.200753 0.137389 -0.081027 0.150993 -0.172081 -0.341061 0.047294 
italy -0.213331 0.364841 0.236440 -0.187190 0.204155 0.035409 -0.052800 -0.203282 -0.137165 0.128145 
letters -0.082189 0.230395 -0.184770 -0.088770 0.599168 -0.394730 -0.057456 -0.292126 0.043260 0.130613 
results 0.245230 0.070823 0.034636 0.198899 -0.025982 0.011451 0.273766 0.097889 -0.025859 -0.118834 
matter 0.462723 0.110225 0.213831 -0.043479 0.082376 -0.102158 0.156423 0.151627 0.010477 -0.206361 
produce 0.229972 0.020865 0.047473 -0.017942 0.112401 0.136609 0.284487 0.207610 -0.273009 0.034007 
origin 0.209125 0.251365 -0.048093 -0.303507 0.167894 0.081281 -0.227588 0.135893 0.101606 -0.106481 
claim 0.059097 0.263220 0.099480 -0.010423 -0.079855 -0.193944 0.021040 -0.105209 -0.207506 -0.309876 
whole 0.160142 0.204917 -0.042507 -0.221876 0.009935 -0.117972 0.127114 -0.080420 -0.170509 -0.014719 
directly 0.102445 0.260097 0.072650 0.029747 0.003563 -0.077012 0.287902 -0.029998 -0.036841 -0.087871 
attempt 0.158628 0.080498 0.329438 0.076451 -0.081274 -0.216440 0.182570 -0.272098 -0.101267 -0.159946 
actress 0.045000 0.398720 0.320899 0.170692 0.380027 -0.405838 -0.281904 0.381972 0.064803 0.588188 
surface 0.741613 0.215009 0.039115 -0.416940 -0.078287 0.246544 0.312858 0.034891 -0.164106 0.397049 
revolution -0.220693 0.323121 0.420718 -0.111734 0.024133 0.002681 0.136562 -0.180334 0.054489 -0.180906 
highly 0.072081 -0.003699 0.231511 -0.190570 0.090853 0.052419 0.190015 0.129200 -0.269614 -0.052475 
caused 0.249374 0.111400 0.260439 0.099308 -0.207436 0.129022 0.062101 -0.009731 -0.362370 -0.144098 
status -0.129842 0.340015 -0.025761 -0.025574 -0.099534 -0.193928 -0.005429 0.122131 -0.149143 -0.074957 
musical -0.001874 -0.083421 0.342076 -0.307013 0.433012 -0.170618 -0.112323 0.250789 -0.152284 0.117543 
richard 0.074424 0.104505 0.384370 0.129044 0.311489 -0.094731 -0.029014 0.034998 0.255270 0.002799 
commercial -0.129395 0.039447 0.206466 0.087115 0.131090 0.228789 0.260844 0.180972 -0.501543 0.146940 
division -0.040319 0.080296 0.064732 0.022561 -0.029538 -0.162960 0.153339 0.173524 -0.119986 0.243513 
color 0.303827 -0.000638 0.008805 -0.307922 0.276235 -0.084645 0.140694 0.414329 -0.172346 0.401951 
health 0.168724 0.301122 0.201361 0.465602 -0.110814 0.109463 -0.008392 0.508530 -0.154968 -0.340415 
coast 0.125173 0.447754 0.284372 -0.297081 -0.188100 0.083038 -0.116236 -0.033711 -0.246287 0.336446 
release 0.073803 0.012599 0.026478 0.426808 0.379169 0.073938 0.183920 -0.211765 -0.284349 0.183119 
latter 0.051463 0.162277 0.112320 -0.106684 0.135161 -0.188989 0.026048 -0.108217 -0.105244 0.009147 
authority -0.016386 0.476105 -0.052161 0.063608 -0.137724 -0.361727 -0.013838 -0.050028 0.047697 -0.210363 
treaty -0.039586 0.571631 0.250149 0.029872 -0.111611 -0.090014 0.262454 -0.270350 0.033282 0.063528 
turn 0.271463 -0.042846 0.155696 -0.007635 -0.036572 -0.181141 0.082914 -0.087932 -0.117741 0.090116 
michael -0.019654 0.079919 0.359766 0.271048 0.349582 -0.108307 -0.114268 0.220323 0.135220 0.112337 
nation -0.032800 0.422392 0.194220 0.063492 -0.079598 -0.032489 -0.109528 0.058477 -0.233817 -0.109912 
direct 0.060707 0.185006 0.071763 0.017914 0.067894 -0.129702 0.332678 -0.055741 -0.063404 -0.121067 
asia -0.114654 0.371463 0.260231 -0.391520 0.113303 0.210658 -0.000570 0.018360 -0.278214 0.092083 
edition 0.005105 0.252558 0.174995 0.251469 0.607674 0.231071 -0.012852 -0.070432 0.156089 -0.074294 
programming -0.225945 0.044844 0.177120 -0.031371 0.536875 -0.181589 0.471772 0.308115 0.059645 0.170609 
playing 0.065937 -0.181055 0.263211 -0.028643 0.288099 -0.444338 0.129808 0.028629 -0.280481 0.314244 
date 0.069473 0.226410 -0.137404 0.175628 0.411284 0.190731 0.023461 -0.255337 -0.144753 -0.030052 
mary 0.148071 0.137452 0.207207 0.217900 0.266031 -0.168689 -0.499244 0.080144 -0.093891 -0.019557 
native -0.077659 0.351297 0.070606 -0.234133 0.147539 -0.026587 -0.269149 0.200208 -0.238442 0.036237 
whom 0.191832 0.176967 0.156316 0.096854 0.046563 -0.372177 -0.297513 -0.084372 -0.095879 -0.086821 
married 0.343228 0.213678 0.244843 0.315847 0.097951 -0.267559 -0.524595 -0.032500 -0.179881 -0.014330 
towards 0.052975 0.125034 0.313250 -0.124576 -0.012489 -0.138779 0.119485 -0.077920 -0.199168 -0.130997 
issues -0.036497 0.204885 0.178179 0.232356 0.058569 0.018748 0.168520 0.243723 -0.173851 -0.242017 
double 0.306749 0.055610 -0.077638 0.070906 0.223223 -0.109369 0.051799 -0.013131 0.018670 0.462732 
primary -0.008647 0.167158 0.114058 -0.044706 0.075968 0.080159 0.032039 0.203721 -0.160569 -0.167014 
basis 0.026894 0.225885 0.095868 -0.098489 0.022952 -0.119515 0.215951 0.017575 0.050694 -0.199787 
allow 0.149269 0.088421 -0.036670 0.155408 0.062497 -0.164265 0.331644 -0.019213 -0.304685 0.021019 
enough 0.412518 0.003972 0.076630 0.102820 -0.001485 -0.004038 0.138202 -0.148099 -0.315712 0.073963 
memory 0.305331 0.064242 0.072552 0.172205 0.430219 0.071495 0.523498 -0.048201 -0.008029 -0.004678 
reason 0.284437 0.082510 0.099856 0.008459 0.114518 -0.124859 0.181041 -0.001809 -0.073181 -0.233235 
web -0.065654 0.195644 0.024885 0.160498 0.648470 0.079272 0.235522 0.322183 -0.173467 0.004247 
exist 0.186567 0.171783 -0.170773 -0.158115 0.169974 -0.113588 0.145837 0.078888 -0.069917 -0.186451 
provided 0.074243 0.196426 0.169082 0.116293 0.056547 0.048705 0.273272 -0.050345 -0.127789 -0.027611 
oil 0.170287 0.431537 0.093180 0.074514 -0.064331 0.505134 0.154484 -0.096121 -0.247827 0.028272 
course 0.178819 0.105521 0.083504 0.000425 0.055651 -0.145845 0.082391 0.033538 -0.024824 -0.042853 
functions 0.141983 0.372400 -0.059715 -0.087237 0.179412 -0.338809 0.434968 0.178050 0.189972 -0.009796 
alexander 0.133102 0.259227 0.448452 0.026269 0.174632 -0.038283 -0.124902 -0.146710 0.149156 0.134662 
analysis 0.093933 0.227273 0.135784 0.079144 0.297781 0.123002 0.333904 0.344694 0.272255 -0.319323 
chemical 0.304714 0.334086 0.117350 -0.166951 -0.010070 0.356691 0.307514 0.464661 0.095612 0.046300 
mid -0.105036 0.139520 0.210506 0.039398 0.130863 0.249502 0.077904 -0.189115 -0.252848 0.132775 
replaced -0.031818 0.160956 0.234592 -0.001768 0.083402 -0.054162 0.163572 -0.214739 -0.114339 0.258813 
queen -0.055092 0.335653 0.241739 0.008498 0.104161 -0.408576 -0.303651 -0.151264 -0.036952 0.236568 
claims 0.146658 0.335807 0.001196 0.178875 -0.009551 -0.056544 0.008657 0.005252 0.001708 -0.267556 
tv 0.089806 0.069768 0.154645 0.321999 0.390505 -0.033487 0.025617 0.308890 -0.216202 0.365784 
sun 0.561661 0.188227 0.102744 -0.011941 0.214296 0.339078 -0.102938 -0.283677 -0.037470 0.071499 
literature 0.020931 0.097260 0.281834 -0.276450 0.419417 -0.008030 -0.074417 0.150688 0.066027 -0.179779 
metal 0.351839 -0.083499 0.190025 -0.314985 0.224019 0.196569 0.285791 0.104979 -0.243544 0.328022 
amount 0.298929 0.237387 -0.077169 0.104648 -0.122974 0.074590 0.391196 0.051957 -0.284089 0.032464 
divided 0.050174 0.623051 -0.096246 -0.233057 -0.197826 -0.259283 0.044030 0.050309 -0.021706 0.085344 
blood 0.689965 -0.001511 0.054866 0.141546 -0.129067 0.042160 -0.182590 0.300089 -0.184288 0.055343 
likely 0.283772 0.079586 -0.087833 0.021205 0.007271 0.150394 0.012403 -0.049587 -0.183665 -0.270666 
access -0.105147 0.202111 0.003537 0.139384 0.079228 0.013374 0.458601 0.230928 -0.297142 0.043663 
average 0.313427 0.487424 -0.441215 0.320894 -0.108124 0.196716 -0.026970 0.179338 -0.259594 0.237068 
length 0.329477 0.227897 -0.263477 -0.144424 0.100315 0.069446 0.115565 -0.180213 -0.071453 0.562673 
smaller 0.050880 0.321234 -0.078129 -0.231756 0.032939 0.044477 0.268470 -0.024028 -0.337341 0.267474 
medical 0.344161 0.331257 0.211743 0.341729 -0.183724 0.081038 0.036843 0.511901 -0.176538 -0.309892 
property 0.082961 0.380969 0.025422 0.161255 -0.091512 -0.327477 0.389580 0.141172 -0.043766 -0.257541 
students -0.066706 0.084984 0.283623 0.096626 0.071402 -0.076883 -0.019920 0.453828 -0.154503 -0.271475 
degree 0.172016 0.156279 0.177828 -0.009448 -0.110260 -0.174525 0.109743 0.249234 0.011012 -0.028385 
elections -0.204423 0.697930 -0.099152 0.401987 -0.016026 -0.459664 0.115958 -0.208130 -0.300600 0.230277 
club -0.219598 0.073049 0.150164 0.181129 0.183280 -0.243803 -0.105243 0.256179 -0.379809 0.298085 
claimed 0.136927 0.155460 0.228720 0.103189 0.061048 -0.076421 -0.055329 -0.085633 -0.088857 -0.187131 
performance 0.078682 -0.104281 0.138796 0.121788 0.183822 -0.046618 0.296159 0.141777 -0.347058 0.087843 
director 0.037637 0.001397 0.462363 0.195183 0.093602 -0.185858 0.052304 0.149274 0.022939 0.162020 
digital 0.011097 0.110669 0.264179 0.079702 0.306616 0.073632 0.471931 0.220135 0.014379 0.228236 
front 0.136115 0.031019 0.225398 -0.059331 -0.149575 -0.344120 0.095108 -0.104332 -0.107332 0.355276 
museum 0.047831 0.199012 0.439406 -0.144268 0.369262 0.467556 -0.155419 0.225016 0.014257 0.104681 
difficult 0.213310 0.032651 -0.000357 -0.180404 0.090549 -0.106978 0.344417 0.005476 -0.294149 -0.194349 
tradition 0.088374 0.170723 0.103020 -0.277748 0.286212 -0.196883 -0.181960 -0.053135 -0.172792 -0.192203 
nearly 0.128351 0.210586 -0.052293 0.023102 -0.090717 0.031969 -0.095780 -0.002616 -0.303828 0.103886 
schools -0.136507 0.263985 0.352478 -0.047194 0.099588 -0.077619 0.037858 0.474566 -0.254653 -0.355532 
washington 0.031749 0.203950 0.409706 0.321119 -0.140731 0.005971 -0.019376 0.183475 0.013685 0.132210 
gas 0.400465 0.342786 0.201453 0.042172 -0.121241 0.567270 0.384424 0.126850 0.043220 0.131532 
jesus 0.413081 0.505325 -0.112166 0.089992 0.305122 -0.211327 -0.347847 -0.147374 -0.099886 -0.322710 
map -0.056191 0.483425 0.060189 -0.248701 0.181752 0.170092 0.165217 0.254029 0.124382 0.298328 
louis 0.033078 0.253327 0.363250 0.086796 0.065245 -0.079213 -0.223513 -0.115026 0.136939 0.166526 
rome 0.126860 0.511948 0.112306 -0.053577 0.204921 0.091828 -0.288180 -0.462881 -0.032180 0.032424 
unit 0.048788 0.346793 0.062959 -0.123282 -0.075111 -0.002666 0.523728 0.031262 0.233677 0.279842 
baseball 0.006578 0.217800 0.448036 0.343750 0.148065 -0.412590 -0.109705 0.412584 -0.155483 0.556255 
mind 0.474912 0.023919 0.292821 0.159414 0.216516 -0.214841 0.135178 0.221442 0.116329 -0.254779 
peter 0.180344 0.153718 0.283134 0.174524 0.346706 -0.125457 -0.215604 0.055954 0.115790 0.073254 
mark 0.098828 0.090897 0.047442 0.055546 0.358850 -0.103429 0.047611 -0.110491 0.087974 0.118120 
collection 0.064458 0.037264 0.171985 0.004963 0.500874 0.206687 0.003266 0.139077 -0.017722 -0.036086 
product 0.132480 0.169293 -0.165595 0.104884 0.115782 0.105070 0.403570 0.086774 -0.088630 0.044599 
congress -0.162877 0.494433 0.223393 0.307755 -0.048504 -0.045715 0.099197 0.088424 -0.034711 0.011909 
programs -0.098977 0.075669 0.141878 0.230617 0.228148 -0.129387 0.464043 0.344146 -0.281879 -0.122182 
changed -0.012751 0.137687 0.120396 0.062875 0.186117 -0.141531 0.117999 -0.179599 -0.132556 0.080462 
ideas 0.129064 0.108795 0.445841 -0.080220 0.290524 -0.141671 0.344572 -0.037419 0.015618 -0.496208 
moon 0.579542 0.127227 0.036602 0.029414 0.219824 0.275853 -0.172007 -0.197575 0.017911 0.097412 
entire 0.185650 0.145966 0.027675 -0.079206 0.090715 -0.018641 0.033391 -0.099390 -0.258019 0.034155 
user 0.084606 -0.011637 -0.081167 0.267220 0.412167 -0.238690 0.621788 0.114909 -0.273452 -0.053525 
ground 0.320907 -0.017848 0.207366 -0.072262 -0.219855 -0.062674 0.077984 -0.039048 -0.226983 0.221349 
records 0.001308 -0.089231 0.061800 0.209336 0.416172 0.020078 -0.112289 -0.030360 -0.375042 0.175213 
frequently 0.082355 0.004824 0.046621 -0.096928 0.023795 -0.199572 -0.089207 0.174787 -0.233517 -0.053714 
increase 0.223450 0.392366 -0.136470 0.270910 -0.185055 0.204395 0.201356 0.039636 -0.346660 -0.031015 
highest 0.161268 0.535391 -0.161895 0.142860 -0.154940 0.043667 -0.117767 0.077487 -0.180170 0.366137 
sent 0.221718 0.193739 0.266608 0.193072 -0.094239 -0.115675 -0.073436 -0.290737 -0.036821 0.022850 
finally 0.205093 0.136672 0.288100 0.125525 -0.019752 -0.106619 0.018687 -0.333486 -0.208465 0.021148 
board -0.180333 0.045152 0.163277 0.205590 0.098976 -0.238267 0.210528 0.365755 -0.096795 0.062150 
don 0.397349 0.013170 0.028910 0.401487 0.425018 -0.319206 -0.033313 0.115968 -0.044389 0.222991 
notable -0.018758 0.030502 0.260634 -0.109482 0.316297 -0.021134 -0.107421 0.171514 -0.154718 0.077283 
read 0.086477 0.165050 -0.219233 0.197161 0.505507 -0.181958 -0.074945 -0.097085 0.039973 -0.118845 
methods 0.220841 0.145411 0.093625 -0.095093 0.203262 -0.000171 0.476554 0.227746 -0.098590 -0.181443 
recently -0.064681 0.122382 0.109482 -0.024127 0.053265 0.040986 0.022295 0.107353 -0.272675 -0.098265 
bit 0.198559 0.340984 -0.283720 0.111045 0.343159 0.044320 0.417323 -0.145498 -0.010732 0.510773 
involved -0.011339 -0.000657 0.320931 0.123047 -0.023406 -0.065618 0.225781 0.108456 -0.091029 -0.154787 
variety 0.060429 0.037379 0.018355 -0.314786 0.146868 0.022211 0.181443 0.339659 -0.423549 0.019899 
call 0.181397 0.055495 -0.022908 0.078602 0.138663 -0.331029 -0.001451 0.053809 -0.196863 -0.070664 
democratic -0.239599 0.441421 0.329816 0.115210 -0.053292 -0.457025 0.181780 0.000105 -0.170979 -0.003998 
ten 0.089512 0.209198 -0.041055 0.305140 0.101498 -0.103579 -0.178553 -0.039372 -0.198069 0.114612 
served 0.039097 0.168235 0.424930 0.075457 -0.184787 -0.082888 -0.103447 0.047046 -0.144057 0.134606 
minor 0.022722 0.037704 0.053700 -0.223242 0.244514 -0.093708 -0.017775 -0.077338 -0.161524 0.246003 
hard 0.274326 0.028986 -0.090618 0.047735 0.263163 0.064811 0.218599 0.007273 -0.369636 0.158081 
birth 0.370197 0.412704 -0.000472 0.284059 0.223613 0.096784 -0.456773 0.036031 -0.086792 -0.121762 
objects 0.565828 0.078488 0.132006 -0.390245 0.176712 -0.044173 0.361259 0.230007 0.124339 0.063727 
nuclear 0.240061 0.312423 0.503209 0.103028 -0.280135 0.362694 0.359991 0.152677 0.192699 -0.006041 
increased 0.115834 0.239380 0.004935 0.121864 -0.158398 0.254416 0.174330 -0.059115 -0.339615 -0.079108 
section 0.103662 0.197367 -0.115003 -0.019798 0.071033 -0.118806 0.067845 0.039615 0.069788 0.104501 
street 0.099150 0.045593 0.334358 0.033457 0.054476 0.033756 -0.192929 0.196160 -0.336941 0.248580 
windows 0.049015 0.282834 -0.112877 0.237270 0.632833 -0.060667 0.399898 -0.189034 -0.243691 0.284717 
relatively 0.146540 0.141133 0.039497 -0.203411 0.035188 0.093358 0.129223 0.026891 -0.369573 0.010226 
car 0.206218 0.035056 0.184845 0.269577 -0.110622 -0.047149 0.120455 0.189967 -0.101253 0.552507 
